{"learner":{"attributes":{"scikit_learn":"{\"use_label_encoder\": true, \"n_estimators\": 100, \"objective\": \"multi:softprob\", \"max_depth\": null, \"learning_rate\": null, \"verbosity\": 0, \"booster\": null, \"tree_method\": null, \"gamma\": null, \"min_child_weight\": null, \"max_delta_step\": null, \"subsample\": 0.7, \"colsample_bytree\": 0.6, \"colsample_bylevel\": null, \"colsample_bynode\": null, \"reg_alpha\": null, \"reg_lambda\": null, \"scale_pos_weight\": null, \"base_score\": null, \"missing\": NaN, \"num_parallel_tree\": null, \"kwargs\": {\"seed\": 2}, \"random_state\": 42, \"n_jobs\": null, \"monotone_constraints\": null, \"interaction_constraints\": null, \"importance_type\": \"gain\", \"gpu_id\": null, \"validate_parameters\": null, \"classes_\": [0, 1, 2, 3, 4], \"n_classes_\": 5, \"_le\": {\"classes_\": [0, 1, 2, 3, 4]}, \"_features_count\": 50, \"n_features_in_\": 50, \"type\": \"XGBClassifier\"}"},"gradient_booster":{"model":{"gbtree_model_param":{"num_trees":"500","size_leaf_vector":"0"},"tree_info":[0,1,2,3,4,0,1,2,3,4,0,1,2,3,4,0,1,2,3,4,0,1,2,3,4,0,1,2,3,4,0,1,2,3,4,0,1,2,3,4,0,1,2,3,4,0,1,2,3,4,0,1,2,3,4,0,1,2,3,4,0,1,2,3,4,0,1,2,3,4,0,1,2,3,4,0,1,2,3,4,0,1,2,3,4,0,1,2,3,4,0,1,2,3,4,0,1,2,3,4,0,1,2,3,4,0,1,2,3,4,0,1,2,3,4,0,1,2,3,4,0,1,2,3,4,0,1,2,3,4,0,1,2,3,4,0,1,2,3,4,0,1,2,3,4,0,1,2,3,4,0,1,2,3,4,0,1,2,3,4,0,1,2,3,4,0,1,2,3,4,0,1,2,3,4,0,1,2,3,4,0,1,2,3,4,0,1,2,3,4,0,1,2,3,4,0,1,2,3,4,0,1,2,3,4,0,1,2,3,4,0,1,2,3,4,0,1,2,3,4,0,1,2,3,4,0,1,2,3,4,0,1,2,3,4,0,1,2,3,4,0,1,2,3,4,0,1,2,3,4,0,1,2,3,4,0,1,2,3,4,0,1,2,3,4,0,1,2,3,4,0,1,2,3,4,0,1,2,3,4,0,1,2,3,4,0,1,2,3,4,0,1,2,3,4,0,1,2,3,4,0,1,2,3,4,0,1,2,3,4,0,1,2,3,4,0,1,2,3,4,0,1,2,3,4,0,1,2,3,4,0,1,2,3,4,0,1,2,3,4,0,1,2,3,4,0,1,2,3,4,0,1,2,3,4,0,1,2,3,4,0,1,2,3,4,0,1,2,3,4,0,1,2,3,4,0,1,2,3,4,0,1,2,3,4,0,1,2,3,4,0,1,2,3,4,0,1,2,3,4,0,1,2,3,4,0,1,2,3,4,0,1,2,3,4,0,1,2,3,4,0,1,2,3,4,0,1,2,3,4,0,1,2,3,4,0,1,2,3,4,0,1,2,3,4,0,1,2,3,4,0,1,2,3,4,0,1,2,3,4,0,1,2,3,4,0,1,2,3,4,0,1,2,3,4,0,1,2,3,4,0,1,2,3,4,0,1,2,3,4,0,1,2,3,4,0,1,2,3,4],"trees":[{"base_weights":[1.3861568E0,1.7467964E0,-4.1202867E-1,2.275706E0,-2.070822E-1,-4.9249834E-1,1.5929203E-1,2.3761065E0,2.1139345E0,2.7392823E-1,-4.3254906E-1,-5.021112E-1,1.8518518E-1,-3.234937E-2,1.4058355E0,2.300221E0,2.4508579E0,1.9189537E0,2.4779356E0,2.1070516E0,-5.556401E-2,-4.483821E-1,6.4257026E-1,-5.117601E-1,8.902077E-2,5.590062E-1,-2.173913E-1,-1.065608E-1,1.6666666E0,1.6261398E0,-6.849315E-2,2.3190908E0,1.9502867E0,2.2042027E0,1.6447538E0,-3.106375E-1,1.28193E0,-4.6285284E-1,4.395604E-1,8.695652E-1,1.7699115E-1,-5.1678973E-1,-1.24555156E-1,-5.1724136E-1,4.8387095E-1,-4.8672566E-1,2.739726E-1,-2.1244308E-1,3.7414965E-1,1.7437721E0,6.164383E-1,2.2666252E0,2.4236069E0,2.091803E0,2.4439461E0,1.4414711E0,2.3652694E0,-5.4448223E-1,-1.7118402E-1,6.8052924E-1,1.7992766E0,-4.670726E-1,6.164383E-1,-2.5906734E-2,1.1904762E0,1.1904762E0,1.8518518E-1,-4.109589E-1,7.692307E-1,-5.20059E-1,-0E0,5.9171595E-2,-3.2846713E-1,9.4771236E-1,-4.4943818E-1,-3.5737282E-1,3.0066815E-1,-4.4943818E-1,5.4376656E-1],"categories":[],"categories_nodes":[],"categories_segments":[],"categories_sizes":[],"default_left":[true,true,true,true,true,true,true,true,true,true,true,true,true,true,true,true,false,true,false,false,true,true,true,true,true,false,true,true,false,true,false,true,false,true,true,true,true,true,true,true,true,true,true,false,true,false,false,true,true,false,false,false,false,false,false,false,false,false,false,false,false,false,false,false,false,false,false,false,false,false,false,false,false,false,false,false,false,false,false],"id":0,"left_children":[1,3,5,7,9,11,13,15,17,19,21,23,25,27,29,31,-1,33,-1,-1,35,37,39,41,43,-1,45,47,-1,49,-1,51,-1,53,55,57,59,61,63,65,67,69,71,-1,73,-1,-1,75,77,-1,-1,-1,-1,-1,-1,-1,-1,-1,-1,-1,-1,-1,-1,-1,-1,-1,-1,-1,-1,-1,-1,-1,-1,-1,-1,-1,-1,-1,-1],"loss_changes":[3.5269082E3,4.6811846E3,4.187619E1,5.2871094E1,1.0486136E2,5.2860413E0,2.7039974E1,6.7929688E0,9.2770996E1,1.8665643E2,1.1488174E1,4.5303497E0,1.9093627E0,1.2650068E1,5.0093784E0,2.765625E0,0E0,6.6708984E1,0E0,0E0,9.004123E1,8.542572E0,8.9870834E-1,1.4425964E0,3.477157E0,0E0,9.8562676E-1,4.9515114E0,0E0,4.8813248E-1,0E0,2.2021484E-1,0E0,6.6850586E0,6.4323364E1,7.12936E0,1.1930222E1,3.198532E0,3.847672E0,1.1939268E0,1.8900192E0,1.2900543E0,4.4053233E-1,0E0,4.1835747E0,0E0,0E0,5.9882402E0,2.7085989E0,0E0,0E0,0E0,0E0,0E0,0E0,0E0,0E0,0E0,0E0,0E0,0E0,0E0,0E0,0E0,0E0,0E0,0E0,0E0,0E0,0E0,0E0,0E0,0E0,0E0,0E0,0E0,0E0,0E0,0E0],"parents":[2147483647,0,0,1,1,2,2,3,3,4,4,5,5,6,6,7,7,8,8,9,9,10,10,11,11,12,12,13,13,14,14,15,15,17,17,20,20,21,21,22,22,23,23,24,24,26,26,27,27,29,29,31,31,33,33,34,34,35,35,36,36,37,37,38,38,39,39,40,40,41,41,42,42,44,44,47,47,48,48],"right_children":[2,4,6,8,10,12,14,16,18,20,22,24,26,28,30,32,-1,34,-1,-1,36,38,40,42,44,-1,46,48,-1,50,-1,52,-1,54,56,58,60,62,64,66,68,70,72,-1,74,-1,-1,76,78,-1,-1,-1,-1,-1,-1,-1,-1,-1,-1,-1,-1,-1,-1,-1,-1,-1,-1,-1,-1,-1,-1,-1,-1,-1,-1,-1,-1,-1,-1],"split_conditions":[5E-1,5E-1,5E-1,5E-1,5E-1,5E-1,5E-1,5E-1,5E-1,5E-1,5E-1,5E-1,5E-1,5E-1,5E-1,1.5E0,7.352574E-1,5E-1,7.4338067E-1,6.321155E-1,5E-1,5E-1,5E-1,5E-1,5E-1,1.6770187E-1,5E-1,5E-1,5E-1,5E-1,-2.0547945E-2,5E-1,5.8508605E-1,5E-1,1.5E0,5E-1,5E-1,5E-1,5E-1,5E-1,5E-1,5E-1,5E-1,-1.5517241E-1,1.5E0,-1.460177E-1,8.219178E-2,5E-1,5E-1,5.2313167E-1,1.849315E-1,6.7998755E-1,7.270821E-1,6.2754095E-1,7.3318386E-1,4.3244135E-1,7.0958084E-1,-1.6334468E-1,-5.135521E-2,2.0415878E-1,5.39783E-1,-1.4012179E-1,1.849315E-1,-7.7720205E-3,3.5714287E-1,3.5714287E-1,5.5555556E-2,-1.2328767E-1,2.3076923E-1,-1.560177E-1,-0E0,1.775148E-2,-9.854014E-2,2.843137E-1,-1.3483146E-1,-1.0721185E-1,9.020045E-2,-1.3483146E-1,1.6312997E-1],"split_indices":[13,12,7,7,8,10,23,8,10,10,23,21,6,10,12,3,0,3,0,0,7,10,7,22,3,0,9,9,0,11,0,11,0,9,7,3,6,28,7,9,3,8,9,0,13,0,0,21,3,0,0,0,0,0,0,0,0,0,0,0,0,0,0,0,0,0,0,0,0,0,0,0,0,0,0,0,0,0,0],"split_type":[0,0,0,0,0,0,0,0,0,0,0,0,0,0,0,0,0,0,0,0,0,0,0,0,0,0,0,0,0,0,0,0,0,0,0,0,0,0,0,0,0,0,0,0,0,0,0,0,0,0,0,0,0,0,0,0,0,0,0,0,0,0,0,0,0,0,0,0,0,0,0,0,0,0,0,0,0,0,0],"sum_hessian":[5.4364805E3,4.5283203E3,9.0816003E2,3.5635203E3,9.6480005E2,7.9616003E2,1.1200001E2,2.1904001E3,1.3731201E3,3.0784003E2,6.5696E2,7.8528E2,1.0880001E1,9.7920006E1,1.4080001E1,1.1027201E3,1.08768E3,8.9824005E2,4.7488004E2,4.608E1,2.6176E2,6.4800006E2,8.960001E0,7.7280005E2,1.24800005E1,5.4400005E0,5.4400005E0,9.472001E1,3.2000003E0,1.2160001E1,1.9200001E0,1.0409601E3,6.1760006E1,4.3680002E2,4.6144003E2,2.2048001E2,4.1280003E1,6.3808E2,9.920001E0,5.4400005E0,3.5200002E0,7.6256006E2,1.0240001E1,4.8E0,7.6800003E0,3.5200002E0,1.9200001E0,7.808E1,1.6640001E1,1.0240001E1,1.9200001E0,7.0816003E2,3.3280002E2,3.0400003E2,1.328E2,3.6224002E2,9.9200005E1,8.128001E1,1.3920001E2,2.0160002E1,2.112E1,6.3616003E2,1.9200001E0,6.7200003E0,3.2000003E0,3.2000003E0,2.2400002E0,1.9200001E0,1.6000001E0,7.577601E2,4.8E0,5.76E0,4.4800005E0,5.1200004E0,2.5600002E0,6.1120003E1,1.6960001E1,2.5600002E0,1.4080001E1],"tree_param":{"num_deleted":"0","num_feature":"50","num_nodes":"79","size_leaf_vector":"0"}},{"base_weights":[-1.4291401E-1,3.5156207E-3,-4.8839682E-1,1.6147985E-1,-6.0760075E-1,-5.982696E-1,-1.481444E-1,3.4350166E-1,-2.0719388E-1,-6.0881156E-1,-2.3809522E-1,-6.153907E-1,-5.17555E-1,-3.8179147E-1,2.3117568E-1,5.326855E-1,9.648126E-2,-2.7291268E-1,3.8278458E-1,-4.109589E-1,8.77193E-2,-5.213487E-1,-0E0,-4.6207413E-1,1.3674197E-1,3.374886E-1,-4.5105565E-1,4.6009618E-1,9.293638E-1,1.5324233E-1,-4.5876035E-1,-2.8920972E-1,7.9710144E-1,4.4744617E-1,-5.3672314E-1,-5.250508E-1,-6.849315E-2,-3.4110683E-1,-5.983772E-1,6.5488565E-1,-5.1948047E-1,5.968639E-1,-5.235602E-2,-5.7507986E-1,-2.3605148E-1,5.026031E-1,-5.6059793E-2,1.0813909E0,6.986301E-1,1.6861753E-1,-3.2385466E-1,-1.6018794E-1,-4.316308E-1,-4.9586776E-1,1.3453815E0,4.8714477E-1,-1.1299434E-1,-5.282417E-1,-2.3809522E-1,-2.771855E-1,-5.96745E-1,-6.1810154E-1,-3.333333E-1,1.0223641E0,-2.5906734E-2,6.781091E-1,-1.11111104E-1,6.776379E-2,-4.255319E-1,-1.1299434E-1,-4.3209875E-1],"categories":[],"categories_nodes":[],"categories_segments":[],"categories_sizes":[],"default_left":[true,true,true,true,true,true,true,true,true,false,true,false,true,true,true,true,true,true,true,false,false,true,false,true,true,true,true,true,true,true,false,true,true,true,false,true,false,true,true,true,false,true,true,false,true,false,false,false,false,false,false,false,false,false,false,false,false,false,false,false,false,false,false,false,false,false,false,false,false,false,false],"id":1,"left_children":[1,3,5,7,9,11,13,15,17,-1,19,-1,21,23,25,27,29,31,33,-1,-1,35,-1,37,39,41,43,45,47,49,-1,51,53,55,-1,57,-1,59,61,63,-1,65,67,-1,69,-1,-1,-1,-1,-1,-1,-1,-1,-1,-1,-1,-1,-1,-1,-1,-1,-1,-1,-1,-1,-1,-1,-1,-1,-1,-1],"loss_changes":[2.7447903E2,3.6804526E2,6.0290283E1,2.0336945E2,2.0541382E-1,1.3681641E0,3.5145565E1,9.474596E1,3.8953133E1,0E0,2.7259934E-1,0E0,4.3172455E-1,1.0269012E1,1.1133267E1,3.2643585E1,2.783599E1,1.5961761E1,6.23578E0,0E0,0E0,3.299904E-1,0E0,3.299965E0,1.1778391E1,1.333408E1,4.1996527E-1,2.1372482E1,5.442047E0,5.923271E0,0E0,1.6272491E1,1.0450079E1,2.163332E0,0E0,7.2330475E-2,0E0,1.7124681E0,3.0942917E-1,4.839884E0,0E0,4.623995E0,2.4261203E0,0E0,1.7602044E-1,0E0,0E0,0E0,0E0,0E0,0E0,0E0,0E0,0E0,0E0,0E0,0E0,0E0,0E0,0E0,0E0,0E0,0E0,0E0,0E0,0E0,0E0,0E0,0E0,0E0,0E0],"parents":[2147483647,0,0,1,1,2,2,3,3,4,4,5,5,6,6,7,7,8,8,10,10,12,12,13,13,14,14,15,15,16,16,17,17,18,18,21,21,23,23,24,24,25,25,26,26,27,27,28,28,29,29,31,31,32,32,33,33,35,35,37,37,38,38,39,39,41,41,42,42,44,44],"right_children":[2,4,6,8,10,12,14,16,18,-1,20,-1,22,24,26,28,30,32,34,-1,-1,36,-1,38,40,42,44,46,48,50,-1,52,54,56,-1,58,-1,60,62,64,-1,66,68,-1,70,-1,-1,-1,-1,-1,-1,-1,-1,-1,-1,-1,-1,-1,-1,-1,-1,-1,-1,-1,-1,-1,-1,-1,-1,-1,-1],"split_conditions":[5E-1,5E-1,5E-1,5E-1,1.5E0,5E-1,5E-1,5E-1,5E-1,-1.8264347E-1,5E-1,-1.8461722E-1,2.5E0,5E-1,5E-1,5E-1,5E-1,5E-1,5E-1,-1.2328767E-1,2.6315792E-2,1.5E0,-0E0,1.5E0,1.5E0,5E-1,5E-1,5E-1,5E-1,1.5E0,-1.3762811E-1,5E-1,5E-1,5E-1,-1.6101694E-1,5E-1,-2.0547945E-2,5E-1,1.5E0,5E-1,-1.5584415E-1,1.5E0,1.5E0,-1.7252396E-1,1.5E0,1.5078095E-1,-1.6817939E-2,3.2441726E-1,2.0958903E-1,5.0585262E-2,-9.71564E-2,-4.8056386E-2,-1.2948924E-1,-1.4876033E-1,4.0361446E-1,1.4614344E-1,-3.3898305E-2,-1.5847251E-1,-7.142857E-2,-8.3155654E-2,-1.790235E-1,-1.8543047E-1,-1E-1,3.0670926E-1,-7.7720205E-3,2.0343274E-1,-3.333333E-2,2.0329138E-2,-1.2765957E-1,-3.3898305E-2,-1.2962963E-1],"split_indices":[7,13,16,11,14,4,4,3,14,0,3,0,4,14,13,14,17,22,21,0,0,11,0,7,7,3,3,17,4,4,0,3,4,24,0,30,0,13,16,3,0,7,3,0,7,0,0,0,0,0,0,0,0,0,0,0,0,0,0,0,0,0,0,0,0,0,0,0,0,0,0],"split_type":[0,0,0,0,0,0,0,0,0,0,0,0,0,0,0,0,0,0,0,0,0,0,0,0,0,0,0,0,0,0,0,0,0,0,0,0,0,0,0,0,0,0,0,0,0,0,0,0,0,0,0,0,0,0,0,0,0,0,0,0,0,0,0,0,0,0,0,0,0,0,0],"sum_hessian":[5.4246406E3,3.8105603E3,1.6140801E3,3.0284802E3,7.820801E2,1.2195201E3,3.9456003E2,2.0275201E3,1.0009601E3,7.7888007E2,3.2000003E0,1.0006401E3,2.1888002E2,2.4416002E2,1.5040001E2,1.1475201E3,8.8000006E2,9.0112006E2,9.9840004E1,1.9200001E0,1.2800001E0,2.1728001E2,1.6000001E0,2.1152002E2,3.2640003E1,1.3056001E2,1.9840002E1,9.718401E2,1.7568001E2,7.9904004E2,8.096001E1,8.8832007E2,1.2800001E1,9.376001E1,6.0800004E0,2.1536002E2,1.9200001E0,1.13920006E2,9.7600006E1,1.8240002E1,1.4400001E1,7.808E1,5.2480003E1,1.152E1,8.320001E0,8.9792004E2,7.3920006E1,1.0368001E2,7.200001E1,7.7472003E2,2.4320002E1,4.6720004E2,4.2112003E2,3.8400002E0,8.960001E0,8.768001E1,6.0800004E0,2.1216002E2,3.2000003E0,9.28E1,2.112E1,8.9600006E1,8.000001E0,1.152E1,6.7200003E0,7.008E1,8.000001E0,4.0320004E1,1.2160001E1,6.0800004E0,2.2400002E0],"tree_param":{"num_deleted":"0","num_feature":"50","num_nodes":"71","size_leaf_vector":"0"}},{"base_weights":[-1.24133624E-1,-5.841684E-1,2.2540147E0,-5.604006E-1,-6.177676E-1,2.2758996E0,-3.1100476E-1,-5.3334713E-1,-5.8721673E-1,2.318599E0,1.2486544E0,-5.279503E-1,2.739726E-1,-5.104684E-1,-5.877559E-1,-5.692428E-1,-6.142365E-1,2.367842E0,1.9136571E0,1.8E0,1.0638297E-1,-4.8560664E-1,-5.9415156E-1,-5.9918463E-1,-3.5508636E-1,-5.388235E-1,-6.005884E-1,-6.1610097E-1,-2.0618556E-1,2.3703024E0,5.2631575E-1,1.614035E0,2.2893953E0,1.9349004E0,5.670103E-1,-1.24555156E-1,9.589041E-1,-4.628105E-1,-5.516052E-1,-5.9841174E-1,-2.3809522E-1,-6.016057E-1,-3.1007752E-1,-4.334038E-1,2.739726E-1,-5.108767E-1,-6.035889E-1,8.77193E-2,-3.8461536E-1,2.3792896E0,1.6161616E0,1.8929632E0,8.843537E-1,2.0221326E0,8.0246913E-1,4.7846887E-2,-4.639175E-1],"categories":[],"categories_nodes":[],"categories_segments":[],"categories_sizes":[],"default_left":[true,true,true,true,false,true,true,true,true,true,true,false,false,true,true,true,true,true,true,true,true,true,true,true,true,true,false,false,true,true,false,true,false,true,false,true,false,false,false,false,false,false,false,false,false,false,false,false,false,false,false,false,false,false,false,false,false],"id":2,"left_children":[1,3,5,7,-1,9,11,13,15,17,19,-1,-1,21,23,25,27,29,31,33,35,37,39,41,43,45,-1,-1,47,49,-1,51,-1,53,-1,55,-1,-1,-1,-1,-1,-1,-1,-1,-1,-1,-1,-1,-1,-1,-1,-1,-1,-1,-1,-1,-1],"loss_changes":[5.9679424E3,3.303711E0,5.0342773E1,1.6366577E0,0E0,3.556543E1,1.2055967E0,1.3790283E0,3.010559E-1,1.2232422E1,2.3211369E1,0E0,0E0,1.7028503E0,8.314209E-1,4.5663452E-1,2.7056885E-1,2.1293945E0,7.153015E0,3.0611649E0,2.7103724E0,8.6317444E-1,1.8328857E-1,7.4417114E-2,1.1454499E0,4.608841E-1,0E0,0E0,2.372108E-1,1.1972656E0,0E0,9.927078E0,0E0,5.6240845E-1,0E0,6.798131E-1,0E0,0E0,0E0,0E0,0E0,0E0,0E0,0E0,0E0,0E0,0E0,0E0,0E0,0E0,0E0,0E0,0E0,0E0,0E0,0E0,0E0],"parents":[2147483647,0,0,1,1,2,2,3,3,5,5,6,6,7,7,8,8,9,9,10,10,13,13,14,14,15,15,16,16,17,17,18,18,19,19,20,20,21,21,22,22,23,23,24,24,25,25,28,28,29,29,31,31,33,33,35,35],"right_children":[2,4,6,8,-1,10,12,14,16,18,20,-1,-1,22,24,26,28,30,32,34,36,38,40,42,44,46,-1,-1,48,50,-1,52,-1,54,-1,56,-1,-1,-1,-1,-1,-1,-1,-1,-1,-1,-1,-1,-1,-1,-1,-1,-1,-1,-1,-1,-1],"split_conditions":[5E-1,5E-1,5E-1,5E-1,-1.8533027E-1,5E-1,5E-1,5E-1,5E-1,5E-1,5E-1,-1.583851E-1,8.219178E-2,5E-1,1.5E0,5E-1,5E-1,2.5E0,5E-1,5E-1,1.5E0,5E-1,5E-1,1.5E0,1.5E0,5E-1,-1.8017653E-1,-1.848303E-1,5E-1,5E-1,1.5789473E-1,5E-1,6.868186E-1,5E-1,1.7010309E-1,5E-1,2.8767124E-1,-1.3884315E-1,-1.6548157E-1,-1.7952353E-1,-7.142857E-2,-1.8048172E-1,-9.3023255E-2,-1.3002114E-1,8.219178E-2,-1.5326302E-1,-1.8107668E-1,2.6315792E-2,-1.15384616E-1,7.137869E-1,4.848485E-1,5.67889E-1,2.6530612E-1,6.066398E-1,2.4074075E-1,1.4354067E-2,-1.3917525E-1],"split_indices":[13,8,8,7,0,23,11,11,5,7,7,0,0,12,2,6,25,9,16,2,13,6,22,5,11,18,0,0,6,21,0,5,0,9,0,2,0,0,0,0,0,0,0,0,0,0,0,0,0,0,0,0,0,0,0,0,0],"split_type":[0,0,0,0,0,0,0,0,0,0,0,0,0,0,0,0,0,0,0,0,0,0,0,0,0,0,0,0,0,0,0,0,0,0,0,0,0,0,0,0,0,0,0,0,0,0,0,0,0,0,0,0,0,0,0,0,0],"sum_hessian":[5.4528003E3,4.5696E3,8.832001E2,2.6867202E3,1.8828801E3,8.758401E2,7.3600006E0,1.3478401E3,1.3388801E3,8.3968005E2,3.6160004E1,5.4400005E0,1.9200001E0,9.561601E2,3.9168002E2,8.1728E2,5.2160004E2,7.4432007E2,9.536001E1,2.4000002E1,1.2160001E1,7.424E2,2.1376001E2,3.7184003E2,1.9840002E1,4.2400003E2,3.9328003E2,5.1872003E2,2.88E0,7.4304004E2,1.2800001E0,5.6000004E1,3.9360004E1,2.112E1,2.88E0,1.0240001E1,1.9200001E0,5.5776E2,1.8464001E2,2.1056001E2,3.2000003E0,3.6768002E2,4.1600003E0,1.7920002E1,1.9200001E0,3.0240002E2,1.21600006E2,1.2800001E0,1.6000001E0,7.3216003E2,1.0880001E1,3.9360004E1,1.6640001E1,1.8880001E1,2.2400002E0,7.3600006E0,2.88E0],"tree_param":{"num_deleted":"0","num_feature":"50","num_nodes":"57","size_leaf_vector":"0"}},{"base_weights":[-5.344393E-1,-4.7480324E-1,-5.9709185E-1,-4.0106544E-1,-6.200505E-1,-5.895877E-1,-6.2388396E-1,-3.159273E-1,-5.6651974E-1,-5.814097E-1,-6.1711746E-1,-2.521342E-1,-6.1281335E-1,-5.341039E-1,-5.973876E-1,-5.6562626E-1,-6.097733E-1,-6.1926E-1,-1.6853932E-1,-2.0268682E-1,-5.1900023E-1,-5.3594005E-1,-5.8369017E-1,8.77193E-2,-3.508772E-1,-1.6579722E-1,-5.657962E-1,-4.542996E-1,-5.6986165E-1,-4.911092E-1,-5.93047E-1],"categories":[],"categories_nodes":[],"categories_segments":[],"categories_sizes":[],"default_left":[true,true,true,true,false,true,false,true,true,true,true,true,false,false,false,true,false,false,true,true,true,true,false,false,false,false,false,false,false,false,false],"id":3,"left_children":[1,3,5,7,-1,9,-1,11,13,15,17,19,-1,-1,-1,21,-1,-1,23,25,27,29,-1,-1,-1,-1,-1,-1,-1,-1,-1],"loss_changes":[1.9958618E1,2.9531311E1,1.6253662E-1,2.5839874E1,0E0,1.09313965E-1,0E0,2.2985504E1,3.0760193E-1,3.8043213E-1,3.3761597E-1,1.3188278E1,0E0,0E0,0E0,2.5280762E-1,0E0,0E0,1.9712201E-1,1.1312809E1,2.5723648E-1,7.6158905E-1,0E0,0E0,0E0,0E0,0E0,0E0,0E0,0E0,0E0],"parents":[2147483647,0,0,1,1,2,2,3,3,5,5,7,7,8,8,9,9,10,10,11,11,15,15,18,18,19,19,20,20,21,21],"right_children":[2,4,6,8,-1,10,-1,12,14,16,18,20,-1,-1,-1,22,-1,-1,24,26,28,30,-1,-1,-1,-1,-1,-1,-1,-1,-1],"split_conditions":[5E-1,5E-1,5E-1,5E-1,-1.8601516E-1,5E-1,-1.871652E-1,5E-1,5E-1,5E-1,5E-1,5E-1,-1.8384402E-1,-1.6023117E-1,-1.792163E-1,5E-1,-1.8293199E-1,-1.85778E-1,5E-1,5E-1,5E-1,5E-1,-1.7510706E-1,2.6315792E-2,-1.05263166E-1,-4.9739167E-2,-1.6973886E-1,-1.3628988E-1,-1.709585E-1,-1.4733276E-1,-1.7791411E-1],"split_indices":[2,10,12,11,0,10,0,12,4,4,31,9,0,0,0,5,0,0,11,16,4,15,0,0,0,0,0,0,0,0,0],"split_type":[0,0,0,0,0,0,0,0,0,0,0,0,0,0,0,0,0,0,0,0,0,0,0,0,0,0,0,0,0,0,0],"sum_hessian":[5.4166406E3,2.7795203E3,2.63712E3,1.8460801E3,9.3344006E2,2.07808E3,5.5904004E2,1.2208E3,6.2528E2,1.6192001E3,4.5888004E2,1.0064001E3,2.1440001E2,3.1392E2,3.1136002E2,1.0537601E3,5.6544006E2,4.5632004E2,2.5600002E0,8.5056006E2,1.5584001E2,4.1024002E2,6.4352E2,1.2800001E0,1.2800001E0,7.7344006E2,7.712E1,7.296001E1,8.2880005E1,2.3520001E2,1.7504001E2],"tree_param":{"num_deleted":"0","num_feature":"50","num_nodes":"31","size_leaf_vector":"0"}},{"base_weights":[-6.0182303E-1,-6.167246E-1,-5.628269E-1,-6.16975E-1,-0E0,-5.7271296E-1,2.3908523E-1,-5.478222E-1,-6.180931E-1,5.2631575E-1,-5.1724136E-1,-5.1875824E-1,-5.9995353E-1,7.651245E-1,-2.3809522E-1,-4.9416307E-1,-5.7755774E-1,2.484472E-1,1.2068965E0,-3.8461536E-1,-0E0,-4.7767714E-1,-5.7490325E-1,-5.8238316E-1,-2.0618556E-1,4.6511626E-1,-3.508772E-1,1.6666666E0,-0E0],"categories":[],"categories_nodes":[],"categories_segments":[],"categories_sizes":[],"default_left":[true,true,true,false,false,true,true,true,false,true,false,true,false,true,true,true,true,true,true,false,false,false,false,false,false,false,false,false,false],"id":4,"left_children":[1,3,5,-1,-1,7,9,11,-1,13,-1,15,-1,17,19,21,23,25,27,-1,-1,-1,-1,-1,-1,-1,-1,-1,-1],"loss_changes":[2.8277588E0,6.088867E-1,1.2202728E1,0E0,0E0,1.3598938E0,4.451932E0,1.1734314E0,0E0,2.8181665E0,0E0,6.351166E-1,0E0,2.26572E0,1.4652015E-1,3.3197784E-1,2.0571136E-1,9.994652E-1,3.2183905E0,0E0,0E0,0E0,0E0,0E0,0E0,0E0,0E0,0E0,0E0],"parents":[2147483647,0,0,1,1,2,2,5,5,6,6,7,7,9,9,11,11,13,13,14,14,15,15,16,16,17,17,18,18],"right_children":[2,4,6,-1,-1,8,10,12,-1,14,-1,16,-1,18,20,22,24,26,28,-1,-1,-1,-1,-1,-1,-1,-1,-1,-1],"split_conditions":[5E-1,3.5E0,5E-1,-1.8509251E-1,-0E0,5E-1,5E-1,5E-1,-1.8542793E-1,5E-1,-1.5517241E-1,5E-1,-1.7998606E-1,5E-1,5E-1,5E-1,5E-1,5E-1,5E-1,-1.15384616E-1,-0E0,-1.4330314E-1,-1.7247099E-1,-1.7471495E-1,-6.185567E-2,1.3953489E-1,-1.05263166E-1,5E-1,-0E0],"split_indices":[10,9,13,0,0,7,23,11,0,7,0,5,0,6,2,9,24,4,9,0,0,0,0,0,0,0,0,0,0],"split_type":[0,0,0,0,0,0,0,0,0,0,0,0,0,0,0,0,0,0,0,0,0,0,0,0,0,0,0,0,0],"sum_hessian":[5.4624004E3,3.9414402E3,1.5209601E3,3.9398403E3,1.6000001E0,1.5027201E3,1.8240002E1,9.7888007E2,5.2384E2,1.3440001E1,4.8E0,6.3552E2,3.4336002E2,1.0240001E1,3.2000003E0,4.5472003E2,1.8080002E2,5.4400005E0,4.8E0,1.6000001E0,1.6000001E0,3.8336002E2,7.136001E1,1.7792001E2,2.88E0,4.1600003E0,1.2800001E0,3.2000003E0,1.6000001E0],"tree_param":{"num_deleted":"0","num_feature":"50","num_nodes":"29","size_leaf_vector":"0"}},{"base_weights":[8.4492695E-1,9.9545044E-1,-3.6271885E-1,1.0608649E0,8.746154E-1,-4.4579417E-1,1.3114534E-1,9.910032E-1,1.1566349E0,8.6233556E-1,1.2950727E0,-4.5997518E-1,4.0671214E-1,-4.7560763E-2,1.017817E0,1.0476458E0,5.386746E-1,1.0366867E0,1.2620592E0,8.804696E-1,6.39211E-1,1.3100548E0,3.8358355E-1,-4.7382593E-1,2.0540021E-1,7.9636955E-1,-4.5374787E-1,-1.362164E-1,1.3211119E0,1.2018679E0,-5.6187194E-3,1.0528266E0,1.4419469E-1,7.0403147E-1,9.702539E-2,8.4933585E-1,1.2483535E0,1.2885208E0,1.1360586E0,9.0723515E-1,7.7149624E-1,6.5533006E-1,-4.3736562E-1,-4.7677147E-1,6.606432E-1,-1.4524643E-1,8.0681986E-1,1.0050759E0,-1.6710216E-2,5.0663684E-2,-4.0137658E-1,-4.2897958E-1,4.801617E-1,1.0751523E0,8.967847E-1,4.9028873E-1,-1.7063943E-1,7.1465087E-1,2.5114924E-2,-2.8844824E-2,3.1132603E-1,7.5439256E-1,1.3601396E0,1.2584612E0,5.596122E-1,9.6699446E-1,1.2906117E0,9.570048E-1,7.3639226E-1,6.9484454E-1,1.2718798E0,8.0356807E-1,5.685115E-1,-4.8721987E-1,-1.55579E-1,-3.5561764E-1,1.5684675E-1,1.3282958E0,-3.55176E-1,-2.0680304E-1,6.790703E-1,-4.496378E-1,5.4807234E-1],"categories":[],"categories_nodes":[],"categories_segments":[],"categories_sizes":[],"default_left":[true,true,true,true,true,true,true,true,true,true,true,true,true,true,true,true,true,true,true,true,true,false,false,true,true,true,false,true,false,false,true,true,true,true,true,true,true,false,true,true,true,true,false,true,false,true,true,false,false,true,true,false,false,false,false,false,false,false,false,false,false,false,false,false,false,false,false,false,false,false,false,false,false,false,false,false,false,false,false,false,false,false,false],"id":5,"left_children":[1,3,5,7,9,11,13,15,17,19,21,23,25,27,29,31,33,35,37,39,41,-1,-1,43,45,47,-1,49,-1,-1,51,53,55,57,59,61,63,-1,65,67,69,71,-1,73,-1,75,77,-1,-1,79,81,-1,-1,-1,-1,-1,-1,-1,-1,-1,-1,-1,-1,-1,-1,-1,-1,-1,-1,-1,-1,-1,-1,-1,-1,-1,-1,-1,-1,-1,-1,-1,-1],"loss_changes":[1.2627715E3,4.7884277E1,3.1666687E1,2.562793E1,1.0110962E1,8.162491E0,1.7748638E1,5.889795E1,1.9960205E1,7.998413E0,3.1297302E-1,6.0819397E0,4.1584415E0,1.1576734E1,3.5446453E0,9.497314E0,1.894429E1,3.0361572E1,1.5054932E0,4.999878E0,3.1098175E0,0E0,0E0,2.4416962E0,3.0568635E0,1.4011645E0,0E0,4.4363446E0,0E0,0E0,9.99462E-1,6.1760254E0,1.4906781E0,1.3465652E0,1.9532769E0,1.9510223E1,1.8709106E0,0E0,3.0115356E0,1.258667E1,1.4152222E1,1.611206E0,0E0,2.0564728E0,0E0,6.6924936E-1,3.6751764E0,0E0,0E0,8.741783E0,1.9397335E0,0E0,0E0,0E0,0E0,0E0,0E0,0E0,0E0,0E0,0E0,0E0,0E0,0E0,0E0,0E0,0E0,0E0,0E0,0E0,0E0,0E0,0E0,0E0,0E0,0E0,0E0,0E0,0E0,0E0,0E0,0E0,0E0],"parents":[2147483647,0,0,1,1,2,2,3,3,4,4,5,5,6,6,7,7,8,8,9,9,10,10,11,11,12,12,13,13,14,14,15,15,16,16,17,17,18,18,19,19,20,20,23,23,24,24,25,25,27,27,30,30,31,31,32,32,33,33,34,34,35,35,36,36,38,38,39,39,40,40,41,41,43,43,45,45,46,46,49,49,50,50],"right_children":[2,4,6,8,10,12,14,16,18,20,22,24,26,28,30,32,34,36,38,40,42,-1,-1,44,46,48,-1,50,-1,-1,52,54,56,58,60,62,64,-1,66,68,70,72,-1,74,-1,76,78,-1,-1,80,82,-1,-1,-1,-1,-1,-1,-1,-1,-1,-1,-1,-1,-1,-1,-1,-1,-1,-1,-1,-1,-1,-1,-1,-1,-1,-1,-1,-1,-1,-1,-1,-1],"split_conditions":[5E-1,5E-1,5E-1,5E-1,5E-1,5E-1,5E-1,1.5E0,5E-1,1.5E0,5E-1,5E-1,5E-1,5E-1,1.5E0,5E-1,1.5E0,5E-1,5E-1,5E-1,2.5E0,3.9301646E-1,1.1507507E-1,5E-1,1.5E0,5E-1,-1.3612437E-1,5E-1,3.963336E-1,3.605604E-1,1.5E0,5E-1,5E-1,5E-1,2.5E0,5E-1,5E-1,3.8655627E-1,1.5E0,5E-1,5E-1,5E-1,-1.3120969E-1,5E-1,1.9819297E-1,5E-1,1.5E0,3.015228E-1,-5.013065E-3,5E-1,5E-1,-1.2869388E-1,1.4404851E-1,3.225457E-1,2.6903543E-1,1.4708662E-1,-5.119183E-2,2.1439527E-1,7.5344774E-3,-8.653448E-3,9.339781E-2,2.2631778E-1,4.080419E-1,3.7753838E-1,1.6788366E-1,2.9009834E-1,3.8718355E-1,2.8710145E-1,2.2091769E-1,2.0845337E-1,3.8156396E-1,2.4107043E-1,1.7055345E-1,-1.4616597E-1,-4.66737E-2,-1.06685296E-1,4.7054026E-2,3.9848876E-1,-1.065528E-1,-6.2040914E-2,2.0372109E-1,-1.3489135E-1,1.644217E-1],"split_indices":[13,4,7,7,21,10,23,2,2,2,26,21,6,10,13,20,5,10,16,7,4,0,0,30,4,9,0,16,0,0,7,9,10,19,2,16,26,0,7,9,20,5,0,23,0,4,13,0,0,5,24,0,0,0,0,0,0,0,0,0,0,0,0,0,0,0,0,0,0,0,0,0,0,0,0,0,0,0,0,0,0,0,0],"split_type":[0,0,0,0,0,0,0,0,0,0,0,0,0,0,0,0,0,0,0,0,0,0,0,0,0,0,0,0,0,0,0,0,0,0,0,0,0,0,0,0,0,0,0,0,0,0,0,0,0,0,0,0,0,0,0,0,0,0,0,0,0,0,0,0,0,0,0,0,0,0,0,0,0,0,0,0,0,0,0,0,0,0,0],"sum_hessian":[6.9437544E3,6.1743467E3,7.6940753E2,4.0007473E3,2.1735996E3,6.587015E2,1.1070606E2,2.3198364E3,1.6809109E3,2.1148835E3,5.8716022E1,6.483765E2,1.0324978E1,9.292388E1,1.7782179E1,2.0604958E3,2.5934058E2,7.9136017E2,8.895508E2,1.9531948E3,1.6168867E2,5.733632E1,1.3797042E0,6.354368E2,1.293966E1,7.1579847E0,3.1669934E0,8.8116615E1,4.8072696E0,1.4923963E1,2.8582172E0,2.048583E3,1.1912876E1,1.8826035E2,7.108022E1,4.2245184E2,3.6890833E2,7.275339E2,1.6201689E2,1.5621759E3,3.9101886E2,1.5968901E2,1.9996593E0,6.343695E2,1.0673349E0,8.653114E0,4.2865453E0,5.5080175E0,1.6499672E0,5.2162415E1,3.5954197E1,1.5897053E0,1.2685119E0,1.7870159E3,2.6156705E2,5.4092493E0,6.503627E0,1.8530917E2,2.951178E0,4.532426E1,2.575596E1,3.5832642E2,6.41254E1,3.6275742E2,6.150913E0,8.08417E1,8.117519E1,1.2061895E3,3.5598648E2,3.411484E2,4.9870472E1,5.593216E1,1.0375685E2,6.13883E2,2.0486515E1,4.9964886E0,3.656626E0,2.8599515E0,1.4265938E0,3.7478058E1,1.468436E1,3.4715977E1,1.2382177E0],"tree_param":{"num_deleted":"0","num_feature":"50","num_nodes":"83","size_leaf_vector":"0"}},{"base_weights":[-9.891479E-2,-5.991698E-1,1.6587759E0,-6.004789E-1,-5.03012E-1,1.6907227E0,7.224713E-2,-5.159629E-1,-1.368833E-1,1.7617388E0,1.1904731E0,-2.2897859E-1,3.8914904E-1,-5.515046E-1,-3.9617687E-1,1.7722746E0,1.3234013E-1,1.3145815E0,1.9898543E-1,-4.476343E-1,8.136344E-1,6.330419E-1,-2.162126E-1,-2.7416283E-1,-5.217903E-1,1.7805958E0,6.2089604E-1,6.529445E-1,-1.5827762E-1,1.5029314E0,9.162929E-1,6.6378945E-1,-4.034424E-1,-1.2550746E-1,9.4779986E-1,1.1148053E-1,-3.908211E-1,-1.3623028E-1,-3.5088006E-1,1.6877146E0,1.8470345E0,2.048795E-1,1.0448793E0,-2.9854907E-3,-3.6415866E-1,1.5459968E0,9.7484654E-1,3.0308473E-1,1.4649651E0,1.1797487E0,4.7604248E-2,4.3862104E-2,-5.117937E-1,-3.3499768E-1,1.6549328E-1],"categories":[],"categories_nodes":[],"categories_segments":[],"categories_sizes":[],"default_left":[true,true,true,false,true,true,true,true,false,true,true,true,true,false,true,true,true,true,true,false,false,true,true,true,false,true,true,false,true,true,true,true,true,true,false,false,false,false,false,false,false,false,false,false,false,false,false,false,false,false,false,false,false,false,false],"id":6,"left_children":[1,3,5,-1,7,9,11,13,-1,15,17,19,21,-1,23,25,27,29,31,-1,-1,33,35,37,-1,39,41,-1,43,45,47,49,51,53,-1,-1,-1,-1,-1,-1,-1,-1,-1,-1,-1,-1,-1,-1,-1,-1,-1,-1,-1,-1,-1],"loss_changes":[4.4542256E3,1.9433594E-1,5.676294E1,0E0,2.0971107E-1,3.698584E1,2.303585E0,2.307415E-2,0E0,1.626831E1,1.694667E1,3.2190816E0,1.860665E0,0E0,1.10352755E-1,8.044189E0,1.2012424E0,7.9332886E0,4.954055E0,0E0,0E0,2.1667914E0,2.7807122E-1,6.324774E-2,0E0,2.7304688E0,1.2654426E0,0E0,1.7353636E-1,3.7368774E-1,1.3824631E1,3.0674973E0,4.0585673E-1,2.6260936E-1,0E0,0E0,0E0,0E0,0E0,0E0,0E0,0E0,0E0,0E0,0E0,0E0,0E0,0E0,0E0,0E0,0E0,0E0,0E0,0E0,0E0],"parents":[2147483647,0,0,1,1,2,2,4,4,5,5,6,6,7,7,9,9,10,10,11,11,12,12,14,14,15,15,16,16,17,17,18,18,21,21,22,22,23,23,25,25,26,26,28,28,29,29,30,30,31,31,32,32,33,33],"right_children":[2,4,6,-1,8,10,12,14,-1,16,18,20,22,-1,24,26,28,30,32,-1,-1,34,36,38,-1,40,42,-1,44,46,48,50,52,54,-1,-1,-1,-1,-1,-1,-1,-1,-1,-1,-1,-1,-1,-1,-1,-1,-1,-1,-1,-1,-1],"split_conditions":[5E-1,5E-1,5E-1,-1.8014367E-1,2.5E0,5E-1,5E-1,1.5E0,-4.1064993E-2,5E-1,1.5E0,5E-1,1.5E0,-1.6545139E-1,5E-1,5E-1,5E-1,5E-1,5E-1,-1.342903E-1,2.4409033E-1,5E-1,1.5E0,5E-1,-1.565371E-1,5E-1,5E-1,1.9588336E-1,5E-1,5E-1,5E-1,5E-1,5E-1,5E-1,2.8433996E-1,3.344416E-2,-1.1724634E-1,-4.0869083E-2,-1.0526402E-1,5.063144E-1,5.5411035E-1,6.1463855E-2,3.134638E-1,-8.956473E-4,-1.092476E-1,4.6379906E-1,2.9245397E-1,9.0925425E-2,4.3948954E-1,3.539246E-1,1.4281275E-2,1.31586315E-2,-1.5353811E-1,-1.0049931E-1,4.9647987E-2],"split_indices":[12,25,13,0,2,7,2,2,0,21,7,7,5,0,9,23,3,10,10,0,0,3,2,5,0,2,9,0,9,14,5,5,3,9,0,0,0,0,0,0,0,0,0,0,0,0,0,0,0,0,0,0,0,0,0],"split_type":[0,0,0,0,0,0,0,0,0,0,0,0,0,0,0,0,0,0,0,0,0,0,0,0,0,0,0,0,0,0,0,0,0,0,0,0,0,0,0,0,0,0,0,0,0,0,0,0,0,0,0,0,0,0,0],"sum_hessian":[5.0635557E3,3.9422222E3,1.1213337E3,3.8841003E3,5.812176E1,1.0991355E3,2.2198214E1,5.574083E1,2.3809323E0,9.6029E2,1.3884557E2,1.1522829E1,1.0675384E1,4.0206944E1,1.5533886E1,9.5403345E2,6.2565675E0,1.2310959E2,1.5735971E1,9.9969425E0,1.5258874E0,7.576983E0,3.0984E0,9.494265E0,6.0396214E0,9.466454E2,7.3880424E0,1.7947524E0,4.461815E0,8.1700226E1,4.1409363E1,8.825098E0,6.9108734E0,2.3983493E0,5.1786337E0,1.2027334E0,1.8956668E0,4.3853807E0,5.108884E0,4.0577518E2,5.408702E2,4.477702E0,2.91034E0,3.1216874E0,1.3401276E0,7.375773E1,7.942498E0,2.0287735E1,2.1121628E1,4.305397E0,4.519701E0,1.4636598E0,5.4472136E0,1.306566E0,1.0917833E0],"tree_param":{"num_deleted":"0","num_feature":"50","num_nodes":"55","size_leaf_vector":"0"}},{"base_weights":[-1.1057068E-1,-5.4726887E-1,1.2098777E0,-5.5852383E-1,-3.287279E-1,1.2269368E0,7.5803673E-1,-5.448912E-1,-6.0342056E-1,-1.8485408E-1,-5.8994144E-1,1.2301129E0,-5.6238826E-2,9.336108E-1,9.425793E-2,-5.565981E-1,-5.161072E-1,-2.5730962E-2,-5.05077E-1,-6.0401297E-1,-3.095854E-1,1.2330017E0,1.0074626E-2,-4.644231E-1,4.4140363E-1,1.0315326E0,5.539604E-2,-3.1107125E-1,7.604823E-1,-5.5707175E-1,-5.6908023E-2,-5.5414E-1,-4.067163E-1,5.318089E-2,-4.6687388E-1,-4.6697798E-1,1.2688524E-1,1.2373166E0,8.313206E-1,5.7424164E-1,-4.2671975E-1,1.2978541E0,7.1475375E-1,-5.1636267E-1,1.0345395E0,-5.330513E-1,8.528377E-2,1.2059861E0,-3.4402E-1,-3.6987156E-1,-5.7591355E-1,1.1544013E-1,-5.128868E-1,1.2440958E0,9.325866E-1,4.7512555E-1,1.0428256E0,5.142854E-1,1.2082188E0],"categories":[],"categories_nodes":[],"categories_segments":[],"categories_sizes":[],"default_left":[true,true,true,true,true,true,true,true,false,true,true,true,true,true,true,true,true,true,false,false,true,true,true,false,false,true,true,true,true,false,false,false,true,true,false,false,false,true,true,false,false,false,true,false,false,false,false,false,false,false,false,false,false,false,false,false,false,false,false],"id":7,"left_children":[1,3,5,7,9,11,13,15,-1,17,19,21,23,25,27,29,31,33,-1,-1,35,37,39,-1,-1,41,43,45,47,-1,-1,-1,49,51,-1,-1,-1,53,55,-1,-1,-1,57,-1,-1,-1,-1,-1,-1,-1,-1,-1,-1,-1,-1,-1,-1,-1,-1],"loss_changes":[2.9537024E3,9.283813E0,8.882568E0,1.9107666E0,7.067219E0,5.062134E0,5.6146374E0,6.6204834E-1,0E0,6.335349E0,7.8754425E-2,4.294922E0,1.0136969E0,3.2609558E0,3.3009188E0,4.3920898E-1,3.2205353E0,2.9588501E0,0E0,0E0,4.2135245E-1,1.0844727E0,1.2049017E0,0E0,0E0,1.9961739E0,3.2926915E0,7.2865057E-1,2.6698678E0,0E0,0E0,0E0,1.142479E0,2.6105194E0,0E0,0E0,0E0,1.3275146E0,7.103367E-1,0E0,0E0,0E0,1.1646757E0,0E0,0E0,0E0,0E0,0E0,0E0,0E0,0E0,0E0,0E0,0E0,0E0,0E0,0E0,0E0,0E0],"parents":[2147483647,0,0,1,1,2,2,3,3,4,4,5,5,6,6,7,7,9,9,10,10,11,11,12,12,13,13,14,14,15,15,16,16,17,17,20,20,21,21,22,22,25,25,26,26,27,27,28,28,32,32,33,33,37,37,38,38,42,42],"right_children":[2,4,6,8,10,12,14,16,-1,18,20,22,24,26,28,30,32,34,-1,-1,36,38,40,-1,-1,42,44,46,48,-1,-1,-1,50,52,-1,-1,-1,54,56,-1,-1,-1,58,-1,-1,-1,-1,-1,-1,-1,-1,-1,-1,-1,-1,-1,-1,-1,-1],"split_conditions":[5E-1,1.5E0,5E-1,5E-1,5E-1,5E-1,1.5E0,5E-1,-1.8102618E-1,5E-1,5E-1,1.5E0,5E-1,1.5E0,1.5E0,1.5E0,5E-1,5E-1,-1.5152311E-1,-1.812039E-1,5E-1,5E-1,5E-1,-1.3932693E-1,1.3242109E-1,5E-1,1.5E0,5E-1,2.5E0,-1.6712153E-1,-1.7072408E-2,-1.66242E-1,5E-1,5E-1,-1.4006217E-1,-1.400934E-1,3.806557E-2,5E-1,5E-1,1.722725E-1,-1.2801594E-1,3.8935623E-1,1.5E0,-1.549088E-1,3.1036186E-1,-1.599154E-1,2.5585132E-2,3.6179584E-1,-1.0320601E-1,-1.10961474E-1,-1.7277408E-1,3.4632042E-2,-1.5386605E-1,3.7322876E-1,2.79776E-1,1.4253767E-1,3.1284767E-1,1.5428562E-1,3.6246565E-1],"split_indices":[13,4,23,12,12,30,3,4,0,9,22,1,5,4,13,24,3,11,0,0,5,22,9,0,0,3,13,9,3,0,0,0,11,23,0,0,0,12,5,0,0,0,13,0,0,0,0,0,0,0,0,0,0,0,0,0,0,0,0],"split_type":[0,0,0,0,0,0,0,0,0,0,0,0,0,0,0,0,0,0,0,0,0,0,0,0,0,0,0,0,0,0,0,0,0,0,0,0,0,0,0,0,0,0,0,0,0,0,0,0,0,0,0,0,0,0,0,0,0,0,0],"sum_hessian":[5.1201387E3,3.8480862E3,1.2720522E3,3.6581355E3,1.8995073E2,1.2241202E3,4.7931904E1,2.816161E3,8.4197455E2,1.235876E2,6.636314E1,1.2211392E3,2.981192E0,3.7584133E1,1.0347773E1,1.9889037E3,8.2725726E2,8.328334E1,4.0304264E1,6.2092186E1,4.2709517E0,1.218244E3,2.8951468E0,1.6744782E0,1.3067139E0,3.3656788E1,3.9273443E0,6.76503E0,3.582743E0,1.9869055E3,1.9980984E0,6.108226E2,2.164347E2,7.139213E1,1.189121E1,3.087643E0,1.1833086E0,1.2032384E3,1.5005539E1,1.126054E0,1.7690928E0,1.6602093E1,1.7054697E1,2.7778761E0,1.1494681E0,4.115337E0,2.649693E0,2.4875154E0,1.0952275E0,1.8034782E2,3.608688E1,6.5035255E1,6.3568687E0,1.1740377E3,2.9200752E1,6.8000293E0,8.205509E0,1.3580045E1,3.4746518E0],"tree_param":{"num_deleted":"0","num_feature":"50","num_nodes":"59","size_leaf_vector":"0"}},{"base_weights":[-4.878379E-1,-5.9615415E-1,1.4558625E0,1.8218641E0,-3.006689E-1,2.127845E0,3.2025513E-1,-3.8511297E-1,1.0256736E0,2.289464E0,-3.6945677E-1,5.019809E-1,-5.1237583E-1,-1.7183359E-1,-5.2670234E-1,2.3500216E0,-4.644853E-1,-1.0701096E-1,-5.176024E-1,6.946783E-1,-5.0246364E-1,-2.8842586E-1,3.078975E-1,2.8549887E-2,-5.6646264E-1,2.404704E0,1.4377843E-1,1.6173247E-1,-2.1733467E-1,-4.36119E-1,8.5793215E-1,-2.2844452E-1,-4.2218062E-1,-2.3428043E-3,5.340035E-1],"categories":[],"categories_nodes":[],"categories_segments":[],"categories_sizes":[],"default_left":[true,false,true,true,true,true,true,true,false,true,true,true,false,true,true,true,false,true,false,true,false,true,true,false,false,false,false,false,false,false,false,false,false,false,false],"id":8,"left_children":[1,-1,3,5,7,9,11,13,-1,15,17,19,-1,21,23,25,-1,27,-1,29,-1,31,33,-1,-1,-1,-1,-1,-1,-1,-1,-1,-1,-1,-1],"loss_changes":[9.711417E2,0E0,1.5712964E2,9.199304E1,5.195013E0,6.840283E1,5.6015377E0,1.1481714E0,0E0,2.7332458E1,3.7365723E-1,6.05844E0,0E0,1.0872183E0,5.497341E-1,1.8248413E1,0E0,1.9057491E-1,0E0,5.0205917E0,0E0,2.2905946E-2,2.799959E-1,0E0,0E0,0E0,0E0,0E0,0E0,0E0,0E0,0E0,0E0,0E0,0E0],"parents":[2147483647,0,0,2,2,3,3,4,4,5,5,6,6,7,7,9,9,10,10,11,11,13,13,14,14,15,15,17,17,19,19,21,21,22,22],"right_children":[2,-1,4,6,8,10,12,14,-1,16,18,20,-1,22,24,26,-1,28,-1,30,-1,32,34,-1,-1,-1,-1,-1,-1,-1,-1,-1,-1,-1,-1],"split_conditions":[5E-1,-1.7884625E-1,1.5E0,5E-1,5E-1,5E-1,5E-1,5E-1,3.077021E-1,5E-1,5E-1,5E-1,-1.5371275E-1,5E-1,5E-1,5E-1,-1.3934559E-1,1.5E0,-1.5528072E-1,5E-1,-1.507391E-1,5E-1,5E-1,8.564967E-3,-1.699388E-1,7.214112E-1,4.313353E-2,4.851974E-2,-6.52004E-2,-1.308357E-1,2.5737965E-1,-6.853336E-2,-1.266542E-1,-7.028413E-4,1.6020106E-1],"split_indices":[18,0,7,9,26,22,22,2,0,13,20,12,0,16,3,12,0,3,0,7,0,22,9,0,0,0,0,0,0,0,0,0,0,0,0],"split_type":[0,0,0,0,0,0,0,0,0,0,0,0,0,0,0,0,0,0,0,0,0,0,0,0,0,0,0,0,0,0,0,0,0,0,0],"sum_hessian":[4.6076265E3,4.3650684E3,2.4255804E2,2.0070146E2,4.1856583E1,1.6638115E2,3.4320316E1,4.0018383E1,1.838202E0,1.5634605E2,1.003509E1,2.8497675E1,5.8226414E0,1.6850174E1,2.3168207E1,1.531256E2,3.2204576E0,4.242201E0,5.7928896E0,2.4169313E1,4.328361E0,1.3876461E1,2.9737134E0,1.567001E0,2.1601206E1,1.4933435E2,3.791252E0,1.0990311E0,3.1431694E0,2.838271E0,2.1331043E1,1.1449813E1,2.4266484E0,1.670819E0,1.3028945E0],"tree_param":{"num_deleted":"0","num_feature":"50","num_nodes":"35","size_leaf_vector":"0"}},{"base_weights":[-5.690142E-1,-5.916668E-1,-1.753623E-1,-5.8617514E-1,-6.1175025E-1,-3.9939263E-1,2.5945088E-1,-4.161021E-1,8.302019E-1,-3.3156958E-1,3.6822793E-1,-4.4242483E-1,-6.191415E-2,-4.522915E-1,1.4209317E-1,2.2925241E-1,9.145204E-1,-4.8269722E-1,-3.3400536E-1,-2.2618686E-1,3.966296E-1,4.447834E-1,-3.004479E-1,1.16086066E-1,7.760144E-1,1.2240752E0,-1.9577672E-1,-5.4182345E-1,-3.3872205E-1,-3.506288E-1,1.6994873E-1,-1.34868855E-2,-4.6719885E-1,-3.3025864E-1,9.3205416E-1,7.4122265E-2,9.334774E-1,1.2935953E0,-4.3672338E-1,1.4776471E0,-3.481697E-1,1.4806513E-1,-3.8457373E-1],"categories":[],"categories_nodes":[],"categories_segments":[],"categories_sizes":[],"default_left":[true,true,true,false,false,true,true,true,false,true,true,true,true,false,true,true,true,true,true,true,true,false,false,true,true,true,true,false,false,false,false,false,false,false,false,false,false,false,false,false,false,false,false],"id":9,"left_children":[1,3,5,-1,-1,7,9,11,-1,13,15,17,19,-1,21,23,25,27,29,31,33,-1,-1,35,37,39,41,-1,-1,-1,-1,-1,-1,-1,-1,-1,-1,-1,-1,-1,-1,-1,-1],"loss_changes":[4.023462E1,1.1315918E-1,2.4219625E1,0E0,0E0,3.7104588E0,5.573095E0,1.4853001E0,0E0,8.479836E-1,5.262951E0,4.9749565E-1,1.022762E0,0E0,6.084485E-1,3.548076E0,5.1490755E0,7.337742E-1,4.2909336E-1,4.9384892E-1,1.7207007E0,0E0,0E0,1.6421285E0,6.783483E0,5.02264E0,3.150707E-1,0E0,0E0,0E0,0E0,0E0,0E0,0E0,0E0,0E0,0E0,0E0,0E0,0E0,0E0,0E0,0E0],"parents":[2147483647,0,0,1,1,2,2,5,5,6,6,7,7,9,9,10,10,11,11,12,12,14,14,15,15,16,16,17,17,18,18,19,19,20,20,23,23,24,24,25,25,26,26],"right_children":[2,4,6,-1,-1,8,10,12,-1,14,16,18,20,-1,22,24,26,28,30,32,34,-1,-1,36,38,40,42,-1,-1,-1,-1,-1,-1,-1,-1,-1,-1,-1,-1,-1,-1,-1,-1],"split_conditions":[5E-1,5E-1,5E-1,-1.7585255E-1,-1.8352509E-1,1.5E0,5E-1,5E-1,2.4906059E-1,5E-1,5E-1,5E-1,5E-1,-1.3568746E-1,5E-1,1.5E0,1.5E0,5E-1,5E-1,5E-1,5E-1,1.3343503E-1,-9.0134375E-2,5E-1,5E-1,1.5E0,5E-1,-1.6254704E-1,-1.0161662E-1,-1.05188645E-1,5.098462E-2,-4.0460657E-3,-1.4015967E-1,-9.90776E-2,2.7961627E-1,2.223668E-2,2.8004324E-1,3.880786E-1,-1.3101701E-1,4.4329414E-1,-1.0445092E-1,4.4419542E-2,-1.1537212E-1],"split_indices":[17,12,10,0,0,17,3,11,0,15,2,2,14,0,2,3,3,3,23,5,2,0,0,11,21,10,5,0,0,0,0,0,0,0,0,0,0,0,0,0,0,0,0],"split_type":[0,0,0,0,0,0,0,0,0,0,0,0,0,0,0,0,0,0,0,0,0,0,0,0,0,0,0,0,0,0,0,0,0,0,0,0,0,0,0,0,0,0,0],"sum_hessian":[4.5226436E3,4.276075E3,2.4656873E2,3.38159E3,8.94485E2,1.6278032E2,8.3788414E1,1.6125061E2,1.5297072E0,1.2705768E1,7.108265E1,1.4986383E2,1.1386781E1,1.016113E1,2.5446372E0,5.77985E1,1.3284149E1,1.0675688E2,4.3106945E1,8.756503E0,2.630278E0,1.5080744E0,1.0365629E0,4.8891476E1,8.907024E0,1.0307817E1,2.9763317E0,7.371929E1,3.303759E1,4.2024952E1,1.0819917E0,5.212384E0,3.544119E0,1.2781947E0,1.3520836E0,4.7541443E1,1.350034E0,6.1959844E0,2.71104E0,8.928064E0,1.3797522E0,1.1314503E0,1.8448814E0],"tree_param":{"num_deleted":"0","num_feature":"50","num_nodes":"43","size_leaf_vector":"0"}},{"base_weights":[6.269741E-1,7.930578E-1,-2.9706585E-1,9.224482E-1,-3.183279E-1,6.687492E-3,-4.668165E-1,9.8826885E-1,-4.017693E-2,-3.9284602E-1,1.1707452E-1,-1.679109E-1,5.5745465E-1,-3.4390685E-1,-5.413975E-1,1.0083424E0,6.417899E-1,-2.6437846E-1,8.2061106E-1,-4.0437153E-1,1.2914802E0,-7.117873E-2,5.028966E-1,-2.8499493E-1,2.1338613E-1,1.002689E0,8.666363E-3,-3.5599726E-1,8.4200895E-1,-5.5301744E-1,2.457379E-1,1.0136249E0,8.7507296E-1,8.208859E-1,4.7843468E-1,-3.8880315E-1,1.0944837E0,8.492023E-1,1.8910326E-1,-4.1131192E-1,1.410068E-1,1.5291009E0,4.791574E-1,-1.3607574E-1,8.043641E-1,2.510984E-1,1.1129007E0,-1.9130525E-1,-4.737547E-1,6.7063266E-1,-6.123565E-1,1.1217653E0,3.1544703E-1,-3.3993915E-1,9.268835E-1,-2.1675733E-1,-4.6466574E-1,-5.587577E-1,-7.8961395E-2,-7.0839055E-2,9.812017E-1,1.0171186E0,9.520717E-1,7.2185063E-1,1.0767637E0,8.3831537E-1,-7.848008E-2,3.7445414E-1,9.831035E-1,-4.7208855E-1,9.667053E-1,1.1348064E0,4.2616725E-1,8.597497E-1,2.1984053E-1,7.147173E-1,-5.230234E-1,-4.1456434E-1,5.59763E-1,6.0533315E-1,-4.371079E-1,-1.4298391E-2,-3.2771406E-1,6.508242E-2,1.1055785E0,4.1193184E-1,-2.1690337E-1,1.2772603E0,4.3169755E-1,5.714609E-1,-2.714078E-1,-3.6005816E-1,-5.5093396E-1,7.823421E-1,-3.0085292E-1,1.1496626E0,4.9787134E-1,-5.738668E-2,8.238793E-1,-2.3390836E-1,-5.738974E-1,9.866994E-1,2.8601584E-1,-2.4048045E-1,6.581674E-2,-4.7946322E-1,1.5927538E-1,-5.6249136E-1,-7.9739384E-2,-4.2329568E-1,1.7643566E-1,8.296201E-2,-3.8508034E-1],"categories":[],"categories_nodes":[],"categories_segments":[],"categories_sizes":[],"default_left":[true,true,true,true,true,true,true,true,true,true,true,true,true,true,true,true,true,true,true,true,true,true,true,true,true,true,true,true,false,true,true,true,true,true,true,true,true,true,true,true,true,false,false,true,true,true,true,true,true,true,false,true,true,true,true,true,true,true,true,true,false,false,false,false,false,false,false,false,false,false,false,false,false,false,false,false,false,false,false,false,false,false,false,false,false,false,false,false,false,false,false,false,false,false,false,false,false,false,false,false,false,false,false,false,false,false,false,false,false,false,false,false,false],"id":10,"left_children":[1,3,5,7,9,11,13,15,17,19,21,23,25,27,29,31,33,35,37,39,41,43,45,47,49,51,53,55,-1,57,59,61,63,65,67,69,71,73,75,77,79,-1,-1,81,83,85,87,89,91,93,-1,95,97,99,101,103,105,107,109,111,-1,-1,-1,-1,-1,-1,-1,-1,-1,-1,-1,-1,-1,-1,-1,-1,-1,-1,-1,-1,-1,-1,-1,-1,-1,-1,-1,-1,-1,-1,-1,-1,-1,-1,-1,-1,-1,-1,-1,-1,-1,-1,-1,-1,-1,-1,-1,-1,-1,-1,-1,-1,-1],"loss_changes":[1.1128882E3,8.8407153E2,5.6994812E1,3.4884863E2,2.0864105E1,3.8292812E1,6.3135986E0,3.5190918E1,6.8398415E1,1.1162308E1,6.902229E0,1.35604925E1,2.3410568E1,4.178442E0,4.1562195E0,2.5405273E0,7.9434433E0,4.794314E1,1.1619377E0,2.1214142E0,3.237009E-2,3.769351E0,4.5012817E0,4.008278E0,2.7448723E1,3.9757767E0,1.4380024E1,3.9617538E0,0E0,1.135437E0,1.7195125E0,3.7597656E-2,5.185501E0,2.174492E0,7.5774307E0,2.960624E1,1.5875816E-1,2.7425385E-1,2.0428622E0,1.9329605E0,2.3033085E0,0E0,0E0,1.4147395E0,9.500642E-1,1.8448298E0,4.3416882E-1,9.721561E0,4.7031975E-1,5.28899E0,0E0,2.0566559E-1,1.7920963E0,6.7396736E-1,1.9158745E-1,8.1732464E-1,1.4605789E0,7.2080994E-1,6.3316476E-1,3.1646293E-1,0E0,0E0,0E0,0E0,0E0,0E0,0E0,0E0,0E0,0E0,0E0,0E0,0E0,0E0,0E0,0E0,0E0,0E0,0E0,0E0,0E0,0E0,0E0,0E0,0E0,0E0,0E0,0E0,0E0,0E0,0E0,0E0,0E0,0E0,0E0,0E0,0E0,0E0,0E0,0E0,0E0,0E0,0E0,0E0,0E0,0E0,0E0,0E0,0E0,0E0,0E0,0E0,0E0],"parents":[2147483647,0,0,1,1,2,2,3,3,4,4,5,5,6,6,7,7,8,8,9,9,10,10,11,11,12,12,13,13,14,14,15,15,16,16,17,17,18,18,19,19,20,20,21,21,22,22,23,23,24,24,25,25,26,26,27,27,29,29,30,30,31,31,32,32,33,33,34,34,35,35,36,36,37,37,38,38,39,39,40,40,43,43,44,44,45,45,46,46,47,47,48,48,49,49,51,51,52,52,53,53,54,54,55,55,56,56,57,57,58,58,59,59],"right_children":[2,4,6,8,10,12,14,16,18,20,22,24,26,28,30,32,34,36,38,40,42,44,46,48,50,52,54,56,-1,58,60,62,64,66,68,70,72,74,76,78,80,-1,-1,82,84,86,88,90,92,94,-1,96,98,100,102,104,106,108,110,112,-1,-1,-1,-1,-1,-1,-1,-1,-1,-1,-1,-1,-1,-1,-1,-1,-1,-1,-1,-1,-1,-1,-1,-1,-1,-1,-1,-1,-1,-1,-1,-1,-1,-1,-1,-1,-1,-1,-1,-1,-1,-1,-1,-1,-1,-1,-1,-1,-1,-1,-1,-1,-1],"split_conditions":[5E-1,5E-1,5E-1,5E-1,5E-1,5E-1,5E-1,5E-1,1.5E0,5E-1,1.5E0,5E-1,5E-1,5E-1,1.5E0,1.5E0,5E-1,5E-1,5E-1,5E-1,5E-1,5E-1,5E-1,5E-1,5E-1,5E-1,1.5E0,5E-1,2.526027E-1,5E-1,1.5E0,1.5E0,5E-1,1.5E0,5E-1,1.5E0,1.5E0,1.5E0,5E-1,5E-1,5E-1,4.5873028E-1,1.4374723E-1,5E-1,5E-1,5E-1,5E-1,5E-1,5E-1,5E-1,-1.8370695E-1,5E-1,1.5E0,5E-1,5E-1,5E-1,1.5E0,5E-1,5E-1,5E-1,2.9436052E-1,3.0513558E-1,2.8562152E-1,2.165552E-1,3.2302913E-1,2.5149462E-1,-2.3544025E-2,1.1233625E-1,2.9493105E-1,-1.4162657E-1,2.900116E-1,3.4044194E-1,1.2785017E-1,2.579249E-1,6.595216E-2,2.1441521E-1,-1.5690704E-1,-1.2436931E-1,1.679289E-1,1.8159994E-1,-1.3113238E-1,-4.289517E-3,-9.831422E-2,1.9524727E-2,3.3167356E-1,1.23579554E-1,-6.507102E-2,3.831781E-1,1.2950927E-1,1.7143828E-1,-8.1422344E-2,-1.0801745E-1,-1.652802E-1,2.3470263E-1,-9.025588E-2,3.448988E-1,1.493614E-1,-1.7216004E-2,2.471638E-1,-7.017251E-2,-1.7216924E-1,2.9600984E-1,8.580475E-2,-7.2144136E-2,1.9745022E-2,-1.4383897E-1,4.778262E-2,-1.6874741E-1,-2.3921816E-2,-1.2698871E-1,5.29307E-2,2.4888603E-2,-1.15524106E-1],"split_indices":[12,13,8,18,7,7,4,17,7,8,3,4,16,21,3,4,3,20,26,22,3,20,21,14,20,18,7,5,0,20,4,3,8,17,7,4,5,16,21,30,5,0,0,16,3,16,16,3,5,13,0,4,7,20,14,7,3,21,7,13,0,0,0,0,0,0,0,0,0,0,0,0,0,0,0,0,0,0,0,0,0,0,0,0,0,0,0,0,0,0,0,0,0,0,0,0,0,0,0,0,0,0,0,0,0,0,0,0,0,0,0,0,0],"split_type":[0,0,0,0,0,0,0,0,0,0,0,0,0,0,0,0,0,0,0,0,0,0,0,0,0,0,0,0,0,0,0,0,0,0,0,0,0,0,0,0,0,0,0,0,0,0,0,0,0,0,0,0,0,0,0,0,0,0,0,0,0,0,0,0,0,0,0,0,0,0,0,0,0,0,0,0,0,0,0,0,0,0,0,0,0,0,0,0,0,0,0,0,0,0,0,0,0,0,0,0,0,0,0,0,0,0,0,0,0,0,0,0,0],"sum_hessian":[7.2490664E3,6.144769E3,1.1042971E3,5.5041333E3,6.406357E2,3.962337E2,7.080635E2,5.1518433E3,3.5229013E2,5.4709875E2,9.353696E1,3.0138647E2,9.484723E1,2.6951428E2,4.385492E2,4.8679067E3,2.839366E2,2.8004282E2,7.2247314E1,5.4413525E2,2.9634821E0,6.3412003E1,3.012495E1,2.3077536E2,7.061111E1,5.1907413E1,4.2939816E1,2.6748706E2,2.0272167E0,4.324625E2,6.0867105E0,4.675959E3,1.9194745E2,1.3352267E2,1.5041396E2,2.5720557E2,2.2837242E1,6.878824E1,3.4590735E0,5.375404E2,6.5948415E0,1.6101114E0,1.3533709E0,5.9822426E1,3.5895777E0,2.2322342E1,7.802609E0,1.5557181E2,7.520356E1,4.55668E1,2.5044306E1,4.3702885E1,8.204529E0,3.1580074E1,1.1359741E1,1.1856329E2,1.4892377E2,4.2711194E2,5.350555E0,4.886864E0,1.1998466E0,4.4101196E3,2.658396E2,1.11682465E2,8.026498E1,1.3105083E2,2.4718463E0,1.261619E2,2.4252058E1,2.4293108E2,1.4274488E1,2.0879478E1,1.9577644E0,6.7294395E1,1.4938432E0,1.9880642E0,1.4710095E0,5.363172E2,1.2232014E0,3.6312425E0,2.9635987E0,3.7235554E1,2.2586872E1,1.3911916E0,2.1983862E0,1.6702253E1,5.6200876E0,5.581023E0,2.2215858E0,1.4201902E1,1.413699E2,3.2698715E1,4.250485E1,4.1042133E1,4.524667E0,4.1025703E1,2.6771836E0,5.2452865E0,2.959242E0,2.310747E1,8.472605E0,9.896421E0,1.4633203E0,1.0951784E2,9.045456E0,1.4569989E2,3.223881E0,4.2363574E2,3.4761968E0,1.9985905E0,3.3519645E0,3.7751577E0,1.1117063E0],"tree_param":{"num_deleted":"0","num_feature":"50","num_nodes":"113","size_leaf_vector":"0"}},{"base_weights":[-8.273464E-2,2.3499032E-2,-3.836028E-1,-7.310618E-2,3.1537467E-1,-5.359031E-1,-2.0199977E-2,3.2169607E-2,-3.1792536E-1,1.1781684E-1,5.042413E-1,-5.576154E-1,-4.3888804E-1,1.3897918E-1,-4.2758352E-1,1.4340465E-1,-1.028595E-1,-3.4415808E-1,4.5789793E-1,7.524952E-3,4.90993E-1,5.212854E-1,-1.9955625E-1,-5.6030023E-1,1.3405176E-1,-4.9478424E-1,6.1789922E-2,3.5572517E-1,-1.11396626E-1,-4.681279E-1,2.7350298E-1,1.7453845E-1,-2.0026153E-1,-7.450262E-2,-4.3344986E-1,-3.9586788E-1,-1.9289519E-1,3.5294375E-1,6.969935E-1,-1.2426282E-1,9.549889E-2,3.7110353E-1,8.043197E-1,5.407971E-1,-3.6777498E-4,-2.987086E-1,1.0288979E-1,-5.7193923E-1,-4.9082616E-1,-2.911704E-1,4.345375E-1,-5.115657E-1,-1.4779674E-1,-3.733988E-1,3.5112038E-1,2.3842603E-1,6.4068407E-1,-2.566992E-1,8.939365E-2,-5.0804657E-1,-1.9999704E-1,4.814757E-1,-3.1918672E-1,2.9576084E-1,1.01324536E-1,-2.743335E-1,4.6578217E-2,-1.7263446E-2,-2.5998113E-1,-3.8379237E-1,-5.475759E-1,-4.1215572E-1,3.7338036E-1,-2.8079474E-1,4.1289763E-3,-1.646382E-1,4.394352E-1,-1.4066976E-1,3.947194E-1,1.5376516E-1,8.663956E-3,4.332655E-1,-2.5734118E-1,8.434107E-1,5.7463285E-2,4.8360074E-1,7.1527594E-1,1.9609807E-1,-2.5780436E-1,-4.939292E-1,2.0816426E-1,-5.1320523E-1,-2.1490483E-1,-5.323887E-1,-3.6858442E-1,-2.958633E-1,1.2157337E-1,-4.8832476E-1,1.3752826E-1,4.8466608E-1,-1.1570688E-1,2.5243926E-1,-3.7514436E-1,4.494377E-1,9.4419044E-1,-4.2432627E-1,-1.9586034E-2,5.120125E-2,5.6181544E-1,-5.474654E-1,-2.8809455E-1,-3.668458E-1,3.811667E-1,7.148713E-2,6.155481E-1],"categories":[],"categories_nodes":[],"categories_segments":[],"categories_sizes":[],"default_left":[true,true,true,true,true,true,true,true,true,true,true,true,true,true,true,true,true,true,true,true,true,true,true,true,true,true,true,true,true,true,true,true,true,true,true,true,true,true,false,true,true,true,true,true,true,true,false,false,true,false,false,true,true,true,true,true,true,true,true,true,true,true,false,false,false,false,false,false,false,false,false,false,false,false,false,false,false,false,false,false,false,false,false,false,false,false,false,false,false,false,false,false,false,false,false,false,false,false,false,false,false,false,false,false,false,false,false,false,false,false,false,false,false,false,false],"id":11,"left_children":[1,3,5,7,9,11,13,15,17,19,21,23,25,27,29,31,33,35,37,39,41,43,45,47,49,51,53,55,57,59,61,63,65,67,69,71,73,75,-1,77,79,81,83,85,87,89,-1,-1,91,-1,-1,93,95,97,99,101,103,105,107,109,111,113,-1,-1,-1,-1,-1,-1,-1,-1,-1,-1,-1,-1,-1,-1,-1,-1,-1,-1,-1,-1,-1,-1,-1,-1,-1,-1,-1,-1,-1,-1,-1,-1,-1,-1,-1,-1,-1,-1,-1,-1,-1,-1,-1,-1,-1,-1,-1,-1,-1,-1,-1,-1,-1],"loss_changes":[1.4950761E2,9.751947E1,6.7545715E1,6.69876E1,3.2030296E1,1.5670013E0,2.3502748E1,2.7323368E1,1.6063324E1,1.7350737E1,5.3747025E0,1.373352E0,4.56394E0,1.4187378E1,3.0221615E0,1.0706017E1,7.6719074E0,5.8411484E0,4.062109E-1,3.797001E0,3.3142548E0,4.3694763E0,3.639719E-1,2.8256226E-1,5.750284E-1,7.7355194E-1,2.2914257E0,4.5259323E0,3.5744038E0,9.325409E-1,9.175934E-1,8.090969E0,1.536041E0,8.044065E0,1.5660667E-1,7.2061157E0,3.372849E0,9.716103E-1,0E0,1.1720698E0,9.921024E-1,2.9013615E0,7.0357513E-1,3.7835846E0,8.839077E-1,9.5627224E-1,0E0,0E0,5.504627E-1,0E0,0E0,2.1670914E-1,3.603805E-1,4.9793088E-1,7.306893E-1,9.609599E-1,1.9104195E0,2.8089418E0,9.06717E-1,5.658016E-1,1.5138015E0,2.3008263E-1,0E0,0E0,0E0,0E0,0E0,0E0,0E0,0E0,0E0,0E0,0E0,0E0,0E0,0E0,0E0,0E0,0E0,0E0,0E0,0E0,0E0,0E0,0E0,0E0,0E0,0E0,0E0,0E0,0E0,0E0,0E0,0E0,0E0,0E0,0E0,0E0,0E0,0E0,0E0,0E0,0E0,0E0,0E0,0E0,0E0,0E0,0E0,0E0,0E0,0E0,0E0,0E0,0E0],"parents":[2147483647,0,0,1,1,2,2,3,3,4,4,5,5,6,6,7,7,8,8,9,9,10,10,11,11,12,12,13,13,14,14,15,15,16,16,17,17,18,18,19,19,20,20,21,21,22,22,23,23,24,24,25,25,26,26,27,27,28,28,29,29,30,30,31,31,32,32,33,33,34,34,35,35,36,36,37,37,39,39,40,40,41,41,42,42,43,43,44,44,45,45,48,48,51,51,52,52,53,53,54,54,55,55,56,56,57,57,58,58,59,59,60,60,61,61],"right_children":[2,4,6,8,10,12,14,16,18,20,22,24,26,28,30,32,34,36,38,40,42,44,46,48,50,52,54,56,58,60,62,64,66,68,70,72,74,76,-1,78,80,82,84,86,88,90,-1,-1,92,-1,-1,94,96,98,100,102,104,106,108,110,112,114,-1,-1,-1,-1,-1,-1,-1,-1,-1,-1,-1,-1,-1,-1,-1,-1,-1,-1,-1,-1,-1,-1,-1,-1,-1,-1,-1,-1,-1,-1,-1,-1,-1,-1,-1,-1,-1,-1,-1,-1,-1,-1,-1,-1,-1,-1,-1,-1,-1,-1,-1,-1,-1],"split_conditions":[5E-1,5E-1,5E-1,5E-1,5E-1,5E-1,1.5E0,5E-1,1.5E0,5E-1,1.5E0,3.5E0,1.5E0,5E-1,1.5E0,5E-1,5E-1,5E-1,5E-1,5E-1,5E-1,5E-1,5E-1,5E-1,5E-1,5E-1,5E-1,5E-1,5E-1,1.5E0,5E-1,5E-1,5E-1,5E-1,5E-1,5E-1,5E-1,5E-1,2.0909807E-1,5E-1,5E-1,1.5E0,5E-1,1.5E0,5E-1,5E-1,3.0866938E-2,-1.7158177E-1,5E-1,-8.735112E-2,1.3036126E-1,5E-1,5E-1,5E-1,1.5E0,5E-1,1.5E0,5E-1,1.5E0,5E-1,1.5E0,1.5E0,-9.575602E-2,8.872826E-2,3.0397361E-2,-8.230005E-2,1.3973466E-2,-5.179034E-3,-7.799434E-2,-1.1513772E-1,-1.6427277E-1,-1.2364672E-1,1.12014115E-1,-8.4238425E-2,1.2386929E-3,-4.9391463E-2,1.3183057E-1,-4.220093E-2,1.18415825E-1,4.6129547E-2,2.599187E-3,1.2997966E-1,-7.720236E-2,2.530232E-1,1.7238986E-2,1.4508022E-1,2.1458279E-1,5.8829423E-2,-7.734131E-2,-1.4817877E-1,6.244928E-2,-1.5396157E-1,-6.447145E-2,-1.597166E-1,-1.1057533E-1,-8.875899E-2,3.6472015E-2,-1.4649743E-1,4.1258477E-2,1.4539982E-1,-3.4712065E-2,7.5731784E-2,-1.12543315E-1,1.3483132E-1,2.8325716E-1,-1.272979E-1,-5.8758105E-3,1.5360376E-2,1.6854464E-1,-1.6423962E-1,-8.642837E-2,-1.1005374E-1,1.1435001E-1,2.1446139E-2,1.8466443E-1],"split_indices":[7,9,16,11,5,4,7,3,2,15,3,2,6,3,4,17,17,2,15,4,6,17,6,18,3,23,9,9,2,16,23,2,2,5,6,22,4,5,0,16,3,9,17,5,3,4,0,0,22,0,0,11,9,5,2,22,2,4,16,4,2,16,0,0,0,0,0,0,0,0,0,0,0,0,0,0,0,0,0,0,0,0,0,0,0,0,0,0,0,0,0,0,0,0,0,0,0,0,0,0,0,0,0,0,0,0,0,0,0,0,0,0,0,0,0],"split_type":[0,0,0,0,0,0,0,0,0,0,0,0,0,0,0,0,0,0,0,0,0,0,0,0,0,0,0,0,0,0,0,0,0,0,0,0,0,0,0,0,0,0,0,0,0,0,0,0,0,0,0,0,0,0,0,0,0,0,0,0,0,0,0,0,0,0,0,0,0,0,0,0,0,0,0,0,0,0,0,0,0,0,0,0,0,0,0,0,0,0,0,0,0,0,0,0,0,0,0,0,0,0,0,0,0,0,0,0,0,0,0,0,0,0,0],"sum_hessian":[4.6763374E3,3.4567234E3,1.219614E3,2.5976882E3,8.5903516E2,8.590964E2,3.6051764E2,1.8171542E3,7.8053394E2,4.206508E2,4.3838434E2,6.981094E2,1.6098698E2,2.597018E2,1.0081583E2,9.963299E2,8.2082434E2,7.5554333E2,2.4990597E1,3.2547662E2,9.5174164E1,4.2827206E2,1.0112285E1,6.9559924E2,2.5101566E0,1.448298E2,1.6157179E1,1.3897382E2,1.2072799E2,9.561842E1,5.197406E0,9.1401825E2,8.2311646E1,7.5710767E2,6.3716663E1,5.6185425E2,1.9368904E2,1.908788E1,5.902717E0,1.3012808E2,1.9534853E2,7.0415276E1,2.4758892E1,4.1279532E2,1.5476748E1,7.624926E0,2.4873588E0,5.8959216E2,1.0600708E2,1.0521886E0,1.4579679E0,1.3769608E2,7.133729E0,6.3361955E0,9.820983E0,9.974993E1,3.9223885E1,6.988037E1,5.084762E1,8.244886E1,1.3169562E1,3.9862778E0,1.211128E0,3.4302396E2,5.7099426E2,6.3227016E1,1.9084627E1,5.793972E2,1.777105E2,4.7438522E1,1.627814E1,5.50659E2,1.1195292E1,1.3364156E2,6.0047474E1,2.6036444E0,1.6484236E1,1.2684694E2,3.2811508E0,1.1644388E2,7.890465E1,6.4359764E1,6.055508E0,2.3404596E1,1.3542945E0,3.1372418E2,9.907114E1,8.912972E0,6.563776E0,5.523213E0,2.1017132E0,9.7258766E1,8.748318E0,1.1781469E2,1.9881386E1,4.5398984E0,2.5938306E0,5.208789E0,1.1274068E0,7.606711E0,2.2142718E0,9.809806E1,1.6518728E0,2.5583775E1,1.3640111E1,4.0476192E1,2.9404177E1,4.8069847E1,2.7777717E0,6.865568E1,1.379318E1,1.0518528E1,2.6510348E0,1.3601584E0,2.6261194E0],"tree_param":{"num_deleted":"0","num_feature":"50","num_nodes":"115","size_leaf_vector":"0"}},{"base_weights":[-8.934107E-2,1.0091591E-1,-5.627376E-1,1.3249812E-1,-4.5785764E-1,5.155576E-2,3.3325747E-1,-4.7623143E-1,-1.4909412E-1,9.479908E-2,-2.161664E-1,3.7377855E-1,-2.0474775E-1,-4.8104438E-1,-1.0061374E-1,-3.6890447E-1,1.4097469E-1,1.7246246E-1,-7.457878E-2,-2.4933703E-1,3.0210266E-1,4.059265E-1,3.3961255E-3,-2.4977808E-1,2.8380623E-1,1.2701808E-1,-2.9830718E-1,-4.5395783E-1,-7.601878E-2,-3.3856007E-1,3.947419E-1,1.600364E-1,5.412059E-1,-3.1808328E-2,-3.0705798E-1,-2.7463412E-1,2.662644E-1,2.1651897E-1,5.4034775E-1,4.5299348E-1,2.5169665E-1,-5.6028735E-2,3.9866477E-1,-2.8871566E-1,3.523866E-1,5.2056277E-1,-3.23372E-1,7.240214E-2,5.0040555E-1],"categories":[],"categories_nodes":[],"categories_segments":[],"categories_sizes":[],"default_left":[true,true,false,true,true,true,true,true,true,true,true,true,true,false,true,true,true,true,true,true,true,true,true,true,true,false,false,false,false,false,true,false,false,false,false,false,false,false,false,false,false,false,false,false,false,false,false,false,false],"id":12,"left_children":[1,3,-1,5,7,9,11,13,15,17,19,21,23,-1,25,27,29,31,33,35,37,39,41,43,45,-1,-1,-1,-1,-1,47,-1,-1,-1,-1,-1,-1,-1,-1,-1,-1,-1,-1,-1,-1,-1,-1,-1,-1],"loss_changes":[4.1212216E2,5.7667686E1,0E0,5.0203163E1,9.2099E-1,2.5532866E1,1.9431496E1,2.4913025E-1,7.710078E-1,2.4979015E1,5.348778E0,9.833702E0,1.4531479E0,0E0,1.8849331E-1,1.321882E-1,8.132733E-1,5.877205E0,5.92989E0,3.840622E0,2.684567E-1,5.403015E0,1.5955163E0,1.4630666E0,9.978688E-1,0E0,0E0,0E0,0E0,0E0,1.0388696E-1,0E0,0E0,0E0,0E0,0E0,0E0,0E0,0E0,0E0,0E0,0E0,0E0,0E0,0E0,0E0,0E0,0E0,0E0],"parents":[2147483647,0,0,1,1,3,3,4,4,5,5,6,6,7,7,8,8,9,9,10,10,11,11,12,12,14,14,15,15,16,16,17,17,18,18,19,19,20,20,21,21,22,22,23,23,24,24,30,30],"right_children":[2,4,-1,6,8,10,12,14,16,18,20,22,24,-1,26,28,30,32,34,36,38,40,42,44,46,-1,-1,-1,-1,-1,48,-1,-1,-1,-1,-1,-1,-1,-1,-1,-1,-1,-1,-1,-1,-1,-1,-1,-1],"split_conditions":[5E-1,5E-1,-1.6882128E-1,5E-1,5E-1,5E-1,5E-1,5E-1,5E-1,5E-1,5E-1,5E-1,2.5E0,-1.4431332E-1,5E-1,5E-1,5E-1,5E-1,1.5E0,5E-1,5E-1,5E-1,1.5E0,1.5E0,5E-1,3.8105424E-2,-8.949216E-2,-1.3618736E-1,-2.2805635E-2,-1.0156803E-1,5E-1,4.8010923E-2,1.6236177E-1,-9.542499E-3,-9.21174E-2,-8.239024E-2,7.987933E-2,6.49557E-2,1.6210434E-1,1.3589805E-1,7.5509E-2,-1.6808622E-2,1.1959944E-1,-8.66147E-2,1.0571598E-1,1.5616883E-1,-9.70116E-2,2.1720644E-2,1.5012167E-1],"split_indices":[8,18,0,4,16,14,20,26,4,6,24,14,4,0,6,21,6,23,6,21,11,6,4,11,2,0,0,0,0,0,20,0,0,0,0,0,0,0,0,0,0,0,0,0,0,0,0,0,0],"split_type":[0,0,0,0,0,0,0,0,0,0,0,0,0,0,0,0,0,0,0,0,0,0,0,0,0,0,0,0,0,0,0,0,0,0,0,0,0,0,0,0,0,0,0,0,0,0,0,0,0],"sum_hessian":[4.5740986E3,3.263352E3,1.3107468E3,3.0894949E3,1.7385721E2,2.2026748E3,8.8681995E2,1.6358055E2,1.0276665E1,1.8969237E3,3.0575113E2,8.2498926E2,6.183069E1,1.6123392E2,2.346633E0,5.6917486E0,4.584916E0,1.3005674E3,5.963563E2,2.8784705E2,1.7904087E1,7.590135E2,6.5975784E1,5.7060158E1,4.7705297E0,1.2568953E0,1.0897378E0,3.9846628E0,1.7070861E0,1.471029E0,3.113887E0,1.2595564E3,4.101101E1,5.0464996E2,9.170634E1,2.7483032E2,1.3016727E1,1.4576607E1,3.3274803E0,5.800577E2,1.7895583E2,5.8099354E1,7.8764305E0,5.4083508E1,2.9766488E0,3.5348434E0,1.2356862E0,1.1847816E0,1.9291054E0],"tree_param":{"num_deleted":"0","num_feature":"50","num_nodes":"49","size_leaf_vector":"0"}},{"base_weights":[-4.5560583E-1,-5.711627E-1,-2.1803309E-1,-1.0009298E-2,-4.697125E-1,1.9083665E-1,-5.260993E-1,-4.3995813E-1,-5.5759865E-1,3.6419928E-1,-5.123425E-1,-5.307315E-1,-8.140351E-2,-3.9650774E-1,-5.4075617E-1,4.3239534E-1,-5.7432073E-1,-5.196858E-1,-2.95819E-1,-5.394318E-1,-3.0090714E-1,-3.646438E-1,-4.9866942E-1,-4.122721E-1,-5.6252235E-1,5.091103E-1,-4.671054E-1,-4.470993E-1,-5.687149E-1,-9.145718E-2,-4.063263E-1,-4.9031505E-1,2.0402578E-1,-3.2844236E-1,-4.7941616E-1,-4.4756317E-1,9.461074E-3],"categories":[],"categories_nodes":[],"categories_segments":[],"categories_sizes":[],"default_left":[true,false,true,true,true,true,true,true,false,true,true,true,false,true,true,true,false,true,true,false,true,true,false,true,false,false,false,false,false,false,false,false,false,false,false,false,false],"id":13,"left_children":[1,-1,3,5,7,9,11,13,-1,15,17,19,-1,21,23,25,-1,27,29,-1,31,33,-1,35,-1,-1,-1,-1,-1,-1,-1,-1,-1,-1,-1,-1,-1],"loss_changes":[1.0656262E2,0E0,6.665971E1,7.2465324E1,1.2613602E0,6.154016E1,3.6021805E-1,1.6915665E0,0E0,2.6127052E1,5.1956177E-3,2.2488403E-1,0E0,8.202858E-1,1.2699509E-1,2.628823E1,0E0,8.5084915E-2,8.930999E-2,0E0,9.9184746E-1,8.32983E-1,0E0,3.3666396E-1,0E0,0E0,0E0,0E0,0E0,0E0,0E0,0E0,0E0,0E0,0E0,0E0,0E0],"parents":[2147483647,0,0,2,2,3,3,4,4,5,5,6,6,7,7,9,9,10,10,11,11,13,13,14,14,15,15,17,17,18,18,20,20,21,21,23,23],"right_children":[2,-1,4,6,8,10,12,14,-1,16,18,20,-1,22,24,26,-1,28,30,-1,32,34,-1,36,-1,-1,-1,-1,-1,-1,-1,-1,-1,-1,-1,-1,-1],"split_conditions":[5E-1,-1.7134881E-1,5E-1,5E-1,5E-1,5E-1,2.5E0,5E-1,-1.672796E-1,5E-1,1.5E0,5E-1,-2.4421053E-2,5E-1,5E-1,1.5E0,-1.7229623E-1,5E-1,1.5E0,-1.6182955E-1,1.5E0,1.5E0,-1.4960083E-1,5E-1,-1.6875671E-1,1.5273309E-1,-1.4013162E-1,-1.3412979E-1,-1.7061448E-1,-2.7437156E-2,-1.2189789E-1,-1.4709452E-1,6.1207734E-2,-9.8532714E-2,-1.4382486E-1,-1.3426895E-1,2.8383224E-3],"split_indices":[7,0,2,10,16,16,7,10,0,8,16,8,0,15,6,7,0,4,4,0,7,2,0,17,0,0,0,0,0,0,0,0,0,0,0,0,0],"split_type":[0,0,0,0,0,0,0,0,0,0,0,0,0,0,0,0,0,0,0,0,0,0,0,0,0,0,0,0,0,0,0,0,0,0,0,0,0],"sum_hessian":[3.885152E3,2.6128442E3,1.2723076E3,6.971353E2,5.7517236E2,5.0229007E2,1.9484521E2,4.3418314E2,1.4098924E2,4.0333377E2,9.895632E1,1.9264505E2,2.2001526E0,3.068464E2,1.2733674E2,3.7651422E2,2.6819527E1,9.435615E1,4.600178E0,1.8432022E2,8.324827E0,2.3737814E2,6.9468254E1,2.1335562E1,1.06001175E2,3.4732614E2,2.9188095E1,4.2119E1,5.2237144E1,2.255914E0,2.344264E0,6.0749664E0,2.2498612E0,1.8339383E2,5.3984318E1,1.9631527E1,1.7040341E0],"tree_param":{"num_deleted":"0","num_feature":"50","num_nodes":"37","size_leaf_vector":"0"}},{"base_weights":[-5.4198164E-1,-5.674951E-1,-1.4382663E-1,-5.714671E-1,-5.4525095E-1,-3.150847E-2,-5.0692457E-1,-5.4696405E-1,-6.354453E-2,9.7406514E-2,-4.9160922E-1,-5.2402174E-1,3.5146866E-2,1.7940363E-1,-3.74044E-1,-5.614249E-1,-3.312432E-1,-5.3968716E-1,-3.1335676E-1,5.6950998E-2,6.423233E-1,-4.076968E-1,-1.2971156E-3,-2.4501827E-1,-4.5676708E-1,-4.2709228E-1,-6.7876965E-2,3.2203026E-2,1.1481886E0,8.531109E-1,9.531865E-2,-4.446948E-1,-4.614201E-2,-1.7619216E-1,-3.7524524E-1],"categories":[],"categories_nodes":[],"categories_segments":[],"categories_sizes":[],"default_left":[true,true,true,false,true,true,true,false,false,true,true,true,false,true,true,false,true,false,true,true,true,true,false,true,false,false,false,false,false,false,false,false,false,false,false],"id":14,"left_children":[1,3,5,-1,7,9,11,-1,-1,13,15,17,-1,19,21,-1,23,-1,25,27,29,31,-1,33,-1,-1,-1,-1,-1,-1,-1,-1,-1,-1,-1],"loss_changes":[3.812854E1,7.324219E-4,9.27657E0,0E0,4.2514038E-1,1.04332075E1,5.167084E-1,0E0,0E0,5.3865523E0,2.4493122E-1,3.1013489E-3,0E0,6.646275E0,2.5927186E-1,0E0,4.0825367E-2,0E0,1.384294E-1,2.5104551E0,2.751011E0,2.3354602E-1,0E0,2.8201163E-2,0E0,0E0,0E0,0E0,0E0,0E0,0E0,0E0,0E0,0E0,0E0],"parents":[2147483647,0,0,1,1,2,2,4,4,5,5,6,6,9,9,10,10,11,11,13,13,14,14,16,16,18,18,19,19,20,20,21,21,23,23],"right_children":[2,4,6,-1,8,10,12,-1,-1,14,16,18,-1,20,22,-1,24,-1,26,28,30,32,-1,34,-1,-1,-1,-1,-1,-1,-1,-1,-1,-1,-1],"split_conditions":[5E-1,5E-1,5E-1,-1.7144014E-1,5E-1,5E-1,5E-1,-1.6408922E-1,-1.906336E-2,5E-1,5E-1,5E-1,1.054406E-2,5E-1,1.5E0,-1.6842748E-1,1.5E0,-1.6190615E-1,5E-1,1.5E0,5E-1,5E-1,-3.891347E-4,1.5E0,-1.3703012E-1,-1.281277E-1,-2.036309E-2,9.660908E-3,3.4445658E-1,2.5593328E-1,2.8595597E-2,-1.3340844E-1,-1.3842603E-2,-5.2857652E-2,-1.1257358E-1],"split_indices":[17,13,13,0,26,7,12,0,0,12,16,16,0,2,9,0,7,0,2,17,9,15,0,2,0,0,0,0,0,0,0,0,0,0,0],"split_type":[0,0,0,0,0,0,0,0,0,0,0,0,0,0,0,0,0,0,0,0,0,0,0,0,0,0,0,0,0,0,0,0,0,0,0],"sum_hessian":[3.7604602E3,3.533604E3,2.2685619E2,2.9772825E3,5.5632135E2,1.7409091E2,5.276528E1,5.542149E2,2.1064234E0,1.3660425E2,3.748666E1,5.1184208E1,1.5810758E0,1.1689307E2,1.9711184E1,2.4374342E1,1.3112319E1,4.618777E1,4.9964356E0,9.332859E1,2.3564476E1,1.7992958E1,1.718226E0,9.522846E0,3.5894723E0,2.9088721E0,2.0875635E0,9.2265625E1,1.0629643E0,1.6605835E1,6.958643E0,1.6114052E1,1.8789059E0,7.769539E0,1.7533076E0],"tree_param":{"num_deleted":"0","num_feature":"50","num_nodes":"35","size_leaf_vector":"0"}},{"base_weights":[5.0966823E-1,6.5260017E-1,-2.9087996E-1,7.5768584E-1,-2.9367056E-1,-2.3232676E-2,-4.5196953E-1,8.0126137E-1,6.87219E-1,-3.787879E-1,1.02926284E-1,-1.5756725E-1,4.3220526E-1,-4.6538505E-1,3.9550588E-1,8.08144E-1,6.269483E-1,6.235087E-1,7.9236895E-1,-3.921193E-1,8.9866495E-1,2.4134117E-1,-2.0995519E-1,-6.1044265E-2,-4.2971313E-1,7.363342E-1,1.9470816E-2,-4.7208098E-1,2.0323831E-1,5.94707E-1,-4.5756146E-1,8.3094174E-1,7.8069556E-1,5.702796E-1,8.58576E-1,5.724518E-1,8.2225513E-1,8.002592E-1,6.853903E-1,-3.9568594E-1,6.7665064E-1,1.0978352E0,4.3611708E-1,4.5471507E-1,4.372404E-2,-2.7127934E-1,4.6086732E-1,2.4347314E-1,-1.4505178E-1,-4.759179E-1,-2.0005502E-1,7.6408225E-1,-1.523446E-1,-3.368543E-1,7.7262384E-1,-4.7843996E-1,-1.4446205E-1,4.321968E-1,-1.8890312E-1,6.6487026E-1,6.364986E-2,7.811993E-1,1.6723175E-1,4.9845305E-1,7.5364083E-1,5.1098883E-1,8.214085E-1,8.6357296E-1,7.590671E-1,6.3286245E-1,8.7328583E-1,-4.029402E-1,9.571143E-2,2.6046297E-1,7.613276E-1,-2.9241737E-2,7.0271915E-1,-3.443711E-1,3.225473E-1,5.561754E-1,-3.2909796E-1,-1.7406315E-1,1.138026E0,-4.8796594E-1,8.91876E-2,-2.3887378E-1,1.6038604E-1,8.046824E-1,2.6757354E-1,-4.0227142E-1,1.883221E-1,8.299637E-1,3.6827326E-1,-4.441322E-1,-5.2496815E-1,-5.8646125E-1,4.4778112E-1,6.2265354E-1,-3.3145823E-2,8.8464487E-1,1.7277007E-1],"categories":[],"categories_nodes":[],"categories_segments":[],"categories_sizes":[],"default_left":[true,true,true,true,true,true,true,true,true,true,true,true,true,true,true,true,true,true,true,true,true,true,true,true,true,true,true,true,true,true,false,false,true,true,false,true,true,false,true,true,false,false,false,true,true,true,false,true,true,true,true,true,false,true,true,true,true,true,false,true,false,false,false,false,false,false,false,false,false,false,false,false,false,false,false,false,false,false,false,false,false,false,false,false,false,false,false,false,false,false,false,false,false,false,false,false,false,false,false,false,false],"id":15,"left_children":[1,3,5,7,9,11,13,15,17,19,21,23,25,27,29,31,33,35,37,39,41,43,45,47,49,51,53,55,57,59,-1,-1,61,63,-1,65,67,-1,69,71,-1,-1,-1,73,75,77,-1,79,81,83,85,87,-1,89,91,93,95,97,-1,99,-1,-1,-1,-1,-1,-1,-1,-1,-1,-1,-1,-1,-1,-1,-1,-1,-1,-1,-1,-1,-1,-1,-1,-1,-1,-1,-1,-1,-1,-1,-1,-1,-1,-1,-1,-1,-1,-1,-1,-1,-1],"loss_changes":[8.1293884E2,5.995657E2,4.6413803E1,1.6107666E1,2.0399876E1,2.488451E1,7.825699E0,3.5078125E0,1.3439758E1,8.812889E0,4.7002454E0,8.221111E0,1.1616413E1,3.0602722E0,2.1438406E0,1.3635254E0,1.2372475E0,1.2719666E1,1.10809326E-1,2.1445694E0,2.1894455E-2,3.1383243E0,1.5016222E0,5.9940734E0,7.7528954E-1,1.4312344E0,1.1085379E1,1.297226E0,7.338401E-1,3.066001E-1,0E0,0E0,3.2531738E-1,1.0556717E0,0E0,1.5455536E1,3.213501E-2,0E0,4.560089E-2,1.7901077E0,0E0,0E0,0E0,1.9403424E0,1.9435042E0,1.4691753E0,0E0,9.26736E0,7.0172033E0,5.0356483E-1,2.5470215E-1,8.3033943E-1,0E0,1.0404088E0,1.7485619E-3,7.9315186E-1,3.9064643E0,4.5406497E-1,0E0,7.302761E-1,0E0,0E0,0E0,0E0,0E0,0E0,0E0,0E0,0E0,0E0,0E0,0E0,0E0,0E0,0E0,0E0,0E0,0E0,0E0,0E0,0E0,0E0,0E0,0E0,0E0,0E0,0E0,0E0,0E0,0E0,0E0,0E0,0E0,0E0,0E0,0E0,0E0,0E0,0E0,0E0,0E0],"parents":[2147483647,0,0,1,1,2,2,3,3,4,4,5,5,6,6,7,7,8,8,9,9,10,10,11,11,12,12,13,13,14,14,15,15,16,16,17,17,18,18,19,19,20,20,21,21,22,22,23,23,24,24,25,25,26,26,27,27,28,28,29,29,32,32,33,33,35,35,36,36,38,38,39,39,43,43,44,44,45,45,47,47,48,48,49,49,50,50,51,51,53,53,54,54,55,55,56,56,57,57,59,59],"right_children":[2,4,6,8,10,12,14,16,18,20,22,24,26,28,30,32,34,36,38,40,42,44,46,48,50,52,54,56,58,60,-1,-1,62,64,-1,66,68,-1,70,72,-1,-1,-1,74,76,78,-1,80,82,84,86,88,-1,90,92,94,96,98,-1,100,-1,-1,-1,-1,-1,-1,-1,-1,-1,-1,-1,-1,-1,-1,-1,-1,-1,-1,-1,-1,-1,-1,-1,-1,-1,-1,-1,-1,-1,-1,-1,-1,-1,-1,-1,-1,-1,-1,-1,-1,-1],"split_conditions":[5E-1,5E-1,5E-1,5E-1,5E-1,5E-1,1.5E0,1.5E0,5E-1,5E-1,5E-1,5E-1,5E-1,5E-1,5E-1,5E-1,5E-1,5E-1,1.5E0,5E-1,5E-1,5E-1,2.5E0,5E-1,5E-1,5E-1,1.5E0,1.5E0,5E-1,1.5E0,-1.3726844E-1,2.4928252E-1,5E-1,5E-1,2.575728E-1,5E-1,1.5E0,2.4007776E-1,5E-1,5E-1,2.029952E-1,3.2935056E-1,1.3083513E-1,5E-1,1.5E0,5E-1,1.382602E-1,5E-1,1.5E0,2.5E0,1.5E0,1.5E0,-4.570338E-2,1.5E0,5E-1,5E-1,5E-1,5E-1,-5.6670938E-2,1.5E0,1.9094959E-2,2.3435979E-1,5.0169528E-2,1.4953592E-1,2.2609226E-1,1.5329665E-1,2.4642256E-1,2.590719E-1,2.2772014E-1,1.8985875E-1,2.6198575E-1,-1.2088207E-1,2.8713431E-2,7.8138895E-2,2.283983E-1,-8.772521E-3,2.1081576E-1,-1.0331134E-1,9.676419E-2,1.6685262E-1,-9.8729394E-2,-5.2218948E-2,3.414078E-1,-1.4638978E-1,2.6756281E-2,-7.1662135E-2,4.8115816E-2,2.4140473E-1,8.027206E-2,-1.2068143E-1,5.649663E-2,2.4898912E-1,1.10481985E-1,-1.3323967E-1,-1.5749045E-1,-1.7593838E-1,1.3433434E-1,1.8679607E-1,-9.943747E-3,2.6539347E-1,5.1831022E-2],"split_indices":[12,13,8,7,7,7,1,3,5,8,16,14,16,21,13,3,11,16,3,30,3,6,3,3,6,22,7,3,16,8,0,0,31,8,0,15,7,0,22,22,0,0,0,5,7,14,0,20,1,14,5,1,0,3,20,5,16,11,0,7,0,0,0,0,0,0,0,0,0,0,0,0,0,0,0,0,0,0,0,0,0,0,0,0,0,0,0,0,0,0,0,0,0,0,0,0,0,0,0,0,0],"split_type":[0,0,0,0,0,0,0,0,0,0,0,0,0,0,0,0,0,0,0,0,0,0,0,0,0,0,0,0,0,0,0,0,0,0,0,0,0,0,0,0,0,0,0,0,0,0,0,0,0,0,0,0,0,0,0,0,0,0,0,0,0,0,0,0,0,0,0,0,0,0,0,0,0,0,0,0,0,0,0,0,0,0,0,0,0,0,0,0,0,0,0,0,0,0,0,0,0,0,0,0,0],"sum_hessian":[7.101965E3,6.026214E3,1.0757509E3,5.424058E3,6.021557E2,4.046224E2,6.711284E2,3.3451208E3,2.0789375E3,4.957937E2,1.0636199E2,3.1296518E2,9.165721E1,6.6111383E2,1.0014558E1,3.2145598E3,1.3056105E2,1.2988777E3,7.8005975E2,4.9135895E2,4.434734E0,7.389875E1,3.246324E1,2.3193002E2,8.1035164E1,5.232028E1,3.9336937E1,6.548498E2,6.264056E0,8.364265E0,1.6502926E0,1.7400563E3,1.4745035E3,1.0767899E2,2.2882063E1,1.0364893E3,2.6238837E2,7.204431E2,5.9616665E1,4.9035236E2,1.006602E0,2.139868E0,2.294866E0,3.4907234E1,3.8991512E1,3.0289856E1,2.1733868E0,4.973786E1,1.8219215E2,6.6569756E1,1.4465413E1,5.0872055E1,1.448222E0,2.7078526E1,1.2258412E1,6.4192975E2,1.2920022E1,3.8904216E0,2.3736346E0,7.165575E0,1.1986905E0,1.4730206E3,1.4829018E0,8.0042885E1,2.7636103E1,8.337131E2,2.0277617E2,1.5099072E2,1.1139764E2,5.0005383E1,9.611283E0,4.833962E2,6.9561515E0,2.250123E1,1.2406004E1,3.5964996E1,3.0265179E0,2.7344244E1,2.9456124E0,3.2187637E1,1.7550224E1,1.7900897E2,3.1831894E0,6.531377E1,1.2559859E0,1.3363468E1,1.1019443E0,4.6452866E1,4.4191866E0,2.4287277E1,2.791249E0,9.814116E0,2.4442964E0,3.755568E2,2.6637296E2,7.404045E0,5.5159774E0,2.5206919E0,1.3697299E0,4.4019485E0,2.7636266E0],"tree_param":{"num_deleted":"0","num_feature":"50","num_nodes":"101","size_leaf_vector":"0"}},{"base_weights":[-5.7946395E-2,-5.620307E-1,9.7387177E-1,-5.6445765E-1,-3.9509752E-1,9.9280566E-1,-6.2463008E-2,-4.6281832E-1,-2.4191594E-1,1.0024353E0,2.0035993E-1,-4.1355336E-1,3.2223198E-1,-5.1502055E-1,-2.6524904E-1,-1.1177373E-2,-4.1623226E-1,1.0094613E0,3.0918548E-1,-1.9045104E-1,4.96522E-1,-5.4007983E-1,2.8444842E-1,-1.00368686E-1,6.965919E-1,-3.3736175E-1,6.3046273E-3,1.0362788E-1,-3.30774E-1,9.5733184E-1,1.0445377E0,4.270635E-1,-1.8622169E-1,-1.1801395E-2,-5.184897E-1,6.5310735E-1,-3.950236E-1,-2.3768264E-1,9.16841E-2,9.2295116E-1,-1.8950783E-2,-4.5660087E-1,-4.4343816E-3,-2.8126957E-2,2.7038732E-1,9.6172297E-1,1.6902591E-1,1.048722E0,6.7272156E-1,1.4506745E-1,8.1887674E-1,2.0365317E-1,-2.4660282E-1,7.960121E-1,1.4037982E-1,-3.8472742E-1,3.1549983E-2,1.9534132E-2,1.3362737E-1],"categories":[],"categories_nodes":[],"categories_segments":[],"categories_sizes":[],"default_left":[true,true,true,false,true,true,true,true,true,true,true,true,true,false,true,true,false,true,true,true,true,false,false,true,true,true,false,true,false,true,true,true,false,true,false,true,false,true,true,false,false,false,false,false,false,false,false,false,false,false,false,false,false,false,false,false,false,false,false],"id":16,"left_children":[1,3,5,-1,7,9,11,13,15,17,19,21,23,-1,25,27,-1,29,31,33,35,-1,-1,37,39,41,-1,43,-1,45,47,49,-1,51,-1,53,-1,55,57,-1,-1,-1,-1,-1,-1,-1,-1,-1,-1,-1,-1,-1,-1,-1,-1,-1,-1,-1,-1],"loss_changes":[2.2722258E3,9.660034E-1,2.8195923E1,0E0,3.5888433E-1,1.0544678E1,3.7349224E0,1.7670918E-1,6.3928574E-1,6.4630127E0,2.195981E0,1.4236224E0,2.1718874E0,0E0,1.6683966E-1,3.247795E-1,0E0,1.5170898E0,9.7870374E-1,4.9494287E-1,1.7386048E0,0E0,0E0,2.0942888E-1,1.1790175E0,2.6254702E-1,0E0,1.5231836E-1,0E0,1.7955933E0,5.576782E-1,1.2890246E0,0E0,3.8201886E-1,0E0,5.7688046E-1,0E0,1.8740699E-1,8.550225E-3,0E0,0E0,0E0,0E0,0E0,0E0,0E0,0E0,0E0,0E0,0E0,0E0,0E0,0E0,0E0,0E0,0E0,0E0,0E0,0E0],"parents":[2147483647,0,0,1,1,2,2,4,4,5,5,6,6,7,7,8,8,9,9,10,10,11,11,12,12,14,14,15,15,17,17,18,18,19,19,20,20,23,23,24,24,25,25,27,27,29,29,30,30,31,31,33,33,35,35,37,37,38,38],"right_children":[2,4,6,-1,8,10,12,14,16,18,20,22,24,-1,26,28,-1,30,32,34,36,-1,-1,38,40,42,-1,44,-1,46,48,50,-1,52,-1,54,-1,56,58,-1,-1,-1,-1,-1,-1,-1,-1,-1,-1,-1,-1,-1,-1,-1,-1,-1,-1,-1,-1],"split_conditions":[5E-1,5E-1,5E-1,-1.693373E-1,1.5E0,1.5E0,5E-1,5E-1,5E-1,5E-1,5E-1,5E-1,5E-1,-1.5450618E-1,5E-1,5E-1,-1.2486968E-1,5E-1,1.5E0,5E-1,2.5E0,-1.6202396E-1,8.5334525E-2,1.5E0,1.5E0,1.5E0,1.8913882E-3,5E-1,-9.9232204E-2,1.5E0,1.5E0,5E-1,-5.586651E-2,5E-1,-1.5554692E-1,5E-1,-1.1850709E-1,1.5E0,5E-1,2.7688536E-1,-5.685235E-3,-1.3698027E-1,-1.3303146E-3,-8.438087E-3,8.11162E-2,2.885169E-1,5.0707776E-2,3.1461662E-1,2.0181648E-1,4.352024E-2,2.4566303E-1,6.1095953E-2,-7.3980846E-2,2.3880364E-1,4.2113945E-2,-1.1541823E-1,9.464995E-3,5.8602397E-3,4.0088214E-2],"split_indices":[12,25,13,0,2,1,4,11,4,23,6,23,3,0,6,11,0,2,3,19,3,0,0,4,13,4,0,15,0,10,3,10,0,10,0,16,0,2,22,0,0,0,0,0,0,0,0,0,0,0,0,0,0,0,0,0,0,0,0],"split_type":[0,0,0,0,0,0,0,0,0,0,0,0,0,0,0,0,0,0,0,0,0,0,0,0,0,0,0,0,0,0,0,0,0,0,0,0,0,0,0,0,0,0,0,0,0,0,0,0,0,0,0,0,0,0,0,0,0,0,0],"sum_hessian":[4.366576E3,2.9337686E3,1.4328076E3,2.8893796E3,4.4389072E1,1.407141E3,2.5666595E1,2.9379272E1,1.50098E1,1.3899851E3,1.7155836E1,1.3380197E1,1.2286399E1,2.196804E1,7.4112315E0,6.9174495E0,8.092351E0,1.3755876E3,1.4397466E1,7.54996E0,9.605876E0,1.1518493E1,1.8617038E0,6.1151414E0,6.1712575E0,5.6646185E0,1.746613E0,5.586445E0,1.3310043E0,5.6467566E2,8.1091205E2,1.1741603E1,2.6558628E0,5.5586815E0,1.9912788E0,8.398297E0,1.207579E0,3.427183E0,2.6879585E0,4.46797E0,1.7032876E0,3.8973103E0,1.7673082E0,3.5851717E0,2.0012734E0,5.6132886E2,3.3468173E0,8.0008746E2,1.0824565E1,7.624408E0,4.1171956E0,2.9679441E0,2.5907376E0,6.1356854E0,2.2626119E0,1.9391266E0,1.4880562E0,1.5269893E0,1.1609691E0],"tree_param":{"num_deleted":"0","num_feature":"50","num_nodes":"59","size_leaf_vector":"0"}},{"base_weights":[-7.145328E-2,-4.9603364E-1,8.069774E-1,-4.628903E-1,-5.4845744E-1,8.2566386E-1,-3.6340424E-1,-4.2000264E-1,-5.093286E-1,8.341911E-1,-4.8111314E-1,-2.3750052E-2,-6.5707695E-1,-3.3314484E-1,-4.5656094E-1,-4.8433173E-1,-5.4804397E-1,8.490493E-1,7.167036E-1,-5.698279E-1,-1.3940957E-1,-1.4799011E-1,3.7506345E-1,-3.4371695E-1,-2.3139704E-2,-4.7532284E-1,-2.5986418E-1,-4.47049E-1,-5.436292E-1,6.026016E-1,8.401673E-1,-3.209955E-1,8.290692E-2,9.139086E-3,-2.8179318E-1,-3.6779383E-1,-2.2664197E-1,-2.211486E-1,3.6308455E-1,-4.448706E-1,-5.2934426E-1,-2.0973462E-1,-5.1380634E-1,-4.3552023E-1,-5.456795E-1,6.9597316E-1,3.8108268E-1,8.54686E-1,1.3589612E-2,3.0281642E-2,-3.1191528E-2],"categories":[],"categories_nodes":[],"categories_segments":[],"categories_sizes":[],"default_left":[true,true,true,true,false,true,true,true,true,true,true,true,false,true,true,true,false,false,true,false,true,true,false,true,true,true,true,true,false,true,true,false,false,true,false,false,false,false,false,false,false,false,false,false,false,false,false,false,false,false,false],"id":17,"left_children":[1,3,5,7,-1,9,11,13,15,17,19,21,-1,23,25,27,-1,-1,29,-1,31,33,-1,35,37,39,41,43,-1,45,47,-1,-1,49,-1,-1,-1,-1,-1,-1,-1,-1,-1,-1,-1,-1,-1,-1,-1,-1,-1],"loss_changes":[1.5776328E3,4.7006836E0,3.0445068E1,3.2782898E0,0E0,1.5522583E1,2.214295E0,2.7606049E0,5.44754E-1,1.7456055E0,2.0647502E-1,6.205444E-1,0E0,8.946934E-1,2.248886E0,9.0065E-1,0E0,0E0,1.7169495E0,0E0,1.5853602E-1,2.0045839E-1,0E0,6.671791E-1,8.569007E-1,7.279968E-1,6.3294196E-1,1.299057E-1,0E0,1.504343E0,8.6759186E-1,0E0,0E0,5.461506E-3,0E0,0E0,0E0,0E0,0E0,0E0,0E0,0E0,0E0,0E0,0E0,0E0,0E0,0E0,0E0,0E0,0E0],"parents":[2147483647,0,0,1,1,2,2,3,3,5,5,6,6,7,7,8,8,9,9,10,10,11,11,13,13,14,14,15,15,18,18,20,20,21,21,23,23,24,24,25,25,26,26,27,27,29,29,30,30,33,33],"right_children":[2,4,6,8,-1,10,12,14,16,18,20,22,-1,24,26,28,-1,-1,30,-1,32,34,-1,36,38,40,42,44,-1,46,48,-1,-1,50,-1,-1,-1,-1,-1,-1,-1,-1,-1,-1,-1,-1,-1,-1,-1,-1,-1],"split_conditions":[5E-1,5E-1,5E-1,5E-1,-1.6453724E-1,5E-1,5E-1,5E-1,5E-1,5E-1,1.5E0,5E-1,-1.971231E-1,5E-1,1.5E0,5E-1,-1.644132E-1,2.5471482E-1,5E-1,-1.7094839E-1,5E-1,1.5E0,1.1251904E-1,1.5E0,5E-1,5E-1,1.5E0,5E-1,-1.6308877E-1,5E-1,3.5E0,-9.629866E-2,2.4872076E-2,5E-1,-8.453795E-2,-1.1033815E-1,-6.799259E-2,-6.634458E-2,1.0892537E-1,-1.3346118E-1,-1.5880328E-1,-6.292039E-2,-1.541419E-1,-1.3065608E-1,-1.6370386E-1,2.0879196E-1,1.1432481E-1,2.5640583E-1,4.0768837E-3,9.084493E-3,-9.357459E-3],"split_indices":[13,8,10,7,0,8,6,10,5,7,3,11,0,24,3,10,0,0,6,0,7,3,0,2,14,11,10,14,0,5,3,0,0,2,0,0,0,0,0,0,0,0,0,0,0,0,0,0,0,0,0],"split_type":[0,0,0,0,0,0,0,0,0,0,0,0,0,0,0,0,0,0,0,0,0,0,0,0,0,0,0,0,0,0,0,0,0,0,0,0,0,0,0,0,0,0,0,0,0,0,0,0,0,0,0],"sum_hessian":[4.227909E3,2.8505571E3,1.3773519E3,1.7524534E3,1.0981038E3,1.3559963E3,2.1355528E1,9.162775E2,8.3617584E2,1.3475646E3,8.431713E0,1.0403724E1,1.0951804E1,2.744154E2,6.418621E2,5.1632025E2,3.1985556E2,1.190748E3,1.5681653E2,6.163822E0,2.2678907E0,8.412081E0,1.9916427E0,2.652605E2,9.154906E0,5.8467633E2,5.7185764E1,3.2224863E2,1.9407162E2,8.4554375E1,7.226215E1,1.0039812E0,1.2639093E0,4.2973104E0,4.114771E0,2.1823761E2,4.7022873E1,6.334667E0,2.820239E0,3.7980994E2,2.0486642E2,4.928296E1,7.9028068E0,2.9337253E2,2.887611E1,5.7975525E1,2.6578848E1,7.098137E1,1.2807837E0,2.9827995E0,1.314511E0],"tree_param":{"num_deleted":"0","num_feature":"50","num_nodes":"51","size_leaf_vector":"0"}},{"base_weights":[-4.2339838E-1,-5.5855066E-1,8.3910507E-1,9.2903435E-1,-4.728707E-1,1.0139319E0,-5.6372124E-1,-5.60378E-1,-2.458101E-1,1.0739377E0,-3.160873E-1,-9.7027875E-2,-4.1604438E-1,1.1170022E0,-2.3757136E-1,4.8287368E-1,-6.0647815E-1,3.198967E-2,-3.0412972E-1,1.1558913E0,6.082143E-3,-5.4057866E-1,8.8950396E-1],"categories":[],"categories_nodes":[],"categories_segments":[],"categories_sizes":[],"default_left":[true,false,true,true,true,true,false,false,true,true,true,true,false,true,true,false,false,false,false,false,false,false,false],"id":18,"left_children":[1,-1,3,5,7,9,-1,-1,11,13,15,17,-1,19,21,-1,-1,-1,-1,-1,-1,-1,-1],"loss_changes":[5.677242E2,0E0,3.8415604E1,3.8789124E1,2.85676E-1,2.3140228E1,0E0,0E0,1.5489846E-1,1.5717468E1,3.3335023E0,1.5450038E-1,0E0,1.1444458E1,3.732896E0,0E0,0E0,0E0,0E0,0E0,0E0,0E0,0E0],"parents":[2147483647,0,0,2,2,3,3,4,4,5,5,8,8,9,9,10,10,11,11,13,13,14,14],"right_children":[2,-1,4,6,8,10,-1,-1,12,14,16,18,-1,20,22,-1,-1,-1,-1,-1,-1,-1,-1],"split_conditions":[5E-1,-1.675652E-1,5E-1,1.5E0,1.5E0,1.5E0,-1.6911638E-1,-1.6811341E-1,5E-1,5E-1,5E-1,5E-1,-1.2481332E-1,5E-1,5E-1,1.4486212E-1,-1.8194345E-1,9.596902E-3,-9.1238916E-2,3.467674E-1,1.824643E-3,-1.621736E-1,2.668512E-1],"split_indices":[18,0,20,1,3,4,0,0,4,8,3,10,0,21,10,0,0,0,0,0,0,0,0],"split_type":[0,0,0,0,0,0,0,0,0,0,0,0,0,0,0,0,0,0,0,0,0,0,0],"sum_hessian":[3.323472E3,3.0025981E3,3.208737E2,3.0056348E2,2.0310225E1,2.8469287E2,1.5870583E1,1.360067E1,6.709555E0,2.7258725E2,1.210563E1,4.4181366E0,2.2914186E0,2.6406476E2,8.522503E0,3.050329E0,9.055302E0,3.2432415E0,1.174895E0,2.5509439E2,8.970356E0,7.1268606E0,1.3956424E0],"tree_param":{"num_deleted":"0","num_feature":"50","num_nodes":"23","size_leaf_vector":"0"}},{"base_weights":[-5.197386E-1,-5.510084E-1,-9.45423E-2,-3.776852E-1,3.7050426E-1,-5.393289E-1,-2.3065995E-1,5.941754E-1,-4.3102685E-1,-5.549835E-1,1.1400536E-1,7.465945E-2,-3.888708E-1,5.338322E-1,1.6954637E0,-4.7030625E-1,-1.00492544E-1,2.0729992E-1,-3.4086856E-1,-4.3305972E-1,-7.943044E-2,6.3653374E-1,-1.13082685E-1,1.2772577E-1,-2.9216662E-1,3.28221E-1,-4.164153E-1,-4.618081E-1,-8.056125E-3,-4.628688E-1,-2.3095669E-1,4.802342E-2,-3.3841813E-1,6.6924727E-1,-3.4867758E-1,-2.5947064E-1,3.3221954E-1],"categories":[],"categories_nodes":[],"categories_segments":[],"categories_sizes":[],"default_left":[true,false,true,true,true,true,true,true,true,false,false,true,true,true,false,false,true,true,true,true,true,true,true,false,false,false,false,false,false,false,false,false,false,false,false,false,false],"id":19,"left_children":[1,-1,3,5,7,9,11,13,15,-1,-1,17,19,21,-1,-1,23,25,27,29,31,33,35,-1,-1,-1,-1,-1,-1,-1,-1,-1,-1,-1,-1,-1,-1],"loss_changes":[4.1088867E1,0E0,2.8210085E1,3.0364056E0,1.4809896E1,7.0355225E-1,3.4778073E0,3.3406487E0,1.9020939E-1,0E0,0E0,1.4600012E0,6.108484E-1,4.193163E0,0E0,0E0,1.7792931E-1,1.6247165E0,2.5700665E-1,1.4050722E-1,2.5131562E-1,1.9635048E0,6.9553655E-1,0E0,0E0,0E0,0E0,0E0,0E0,0E0,0E0,0E0,0E0,0E0,0E0,0E0,0E0],"parents":[2147483647,0,0,2,2,3,3,4,4,5,5,6,6,7,7,8,8,11,11,12,12,13,13,16,16,17,17,18,18,19,19,20,20,21,21,22,22],"right_children":[2,-1,4,6,8,10,12,14,16,-1,-1,18,20,22,-1,-1,24,26,28,30,32,34,36,-1,-1,-1,-1,-1,-1,-1,-1,-1,-1,-1,-1,-1,-1],"split_conditions":[5E-1,-1.6530253E-1,5E-1,5E-1,5E-1,5E-1,5E-1,1.5E0,5E-1,-1.6649505E-1,3.4201607E-2,5E-1,5E-1,5E-1,5.086391E-1,-1.4109188E-1,5E-1,5E-1,5E-1,5E-1,1.5E0,5E-1,5E-1,3.8317733E-2,-8.7649986E-2,9.84663E-2,-1.2492459E-1,-1.3854243E-1,-2.4168375E-3,-1.3886064E-1,-6.928701E-2,1.4407027E-2,-1.0152544E-1,2.007742E-1,-1.04603276E-1,-7.784119E-2,9.9665865E-2],"split_indices":[17,0,10,8,7,12,4,17,12,0,0,12,9,12,0,0,9,9,9,12,4,8,6,0,0,0,0,0,0,0,0,0,0,0,0,0,0],"split_type":[0,0,0,0,0,0,0,0,0,0,0,0,0,0,0,0,0,0,0,0,0,0,0,0,0,0,0,0,0,0,0,0,0,0,0,0,0],"sum_hessian":[3.0932842E3,2.8811062E3,2.1217815E2,1.3199875E2,8.017938E1,6.160272E1,7.0396034E1,6.2888687E1,1.7290695E1,6.03082E1,1.2945169E0,2.4207628E1,4.6188408E1,6.102942E1,1.8592695E0,1.507623E1,2.2144663E0,1.8729963E1,5.477664E0,4.0067207E1,6.121201E0,5.2681904E1,8.347514E0,1.163165E0,1.0513014E0,1.6085245E1,2.6447186E0,3.7334034E0,1.7442608E0,3.3792706E1,6.2745E0,4.648258E0,1.4729431E0,5.1299244E1,1.3826627E0,6.5963545E0,1.7511597E0],"tree_param":{"num_deleted":"0","num_feature":"50","num_nodes":"37","size_leaf_vector":"0"}},{"base_weights":[4.357167E-1,4.7059703E-1,-1.3168807E-1,3.9353845E-1,6.5185386E-1,-3.0693325E-1,5.589948E-1,3.307675E-1,5.22426E-1,6.8912774E-1,5.0337535E-1,-3.9662397E-1,6.125933E-1,3.875539E-1,6.8111044E-1,3.4550026E-1,1.8447502E-1,5.340758E-1,-3.2701802E-1,6.897935E-1,-8.18242E-2,5.561434E-1,3.072446E-1,-4.7291386E-1,4.7461694E-1,7.116411E-1,7.23685E-2,4.3535805E-1,-4.4995254E-1,3.1610182E-1,4.1805947E-1,-1.0470664E-2,4.3425292E-1,5.9187645E-1,3.990973E-1,-6.6963047E-1,1.2920104E-1,6.9032186E-1,-2.4526287E-2,6.470712E-1,3.6417875E-1,3.5612813E-1,-8.42609E-3,-5.103518E-1,6.9479465E-1,5.1513255E-1,-1.3096476E-1,7.542894E-1,1.23106934E-1,-2.6511407E-1,5.532987E-1,2.5231963E-1,5.41389E-1,2.7685422E-1,3.7222803E-1,4.4051823E-1,-1.2692502E-1,1.03045374E-1,-4.4206664E-1,5.321048E-1,6.066186E-2,5.391839E-1,6.768684E-1,4.3204954E-1,2.1136063E-1,-7.178628E-1,-2.5803906E-1,2.4717169E-1,-2.449472E-1,6.905973E-1,2.0663252E-1,6.7802405E-1,4.6331885E-1,3.8845637E-1,-9.860881E-3,2.8148204E-1,7.71613E-1,4.3306214E-1,-4.118474E-1,3.9172179E-1,-5.4622906E-1,5.42388E-1,2.7694445E-2,2.381309E-1,7.820093E-1,-5.236947E-1,1.02273755E-1,3.9898303E-1,-4.215461E-1,3.7271944E-1,6.7219543E-1],"categories":[],"categories_nodes":[],"categories_segments":[],"categories_sizes":[],"default_left":[true,true,true,true,true,true,true,true,true,true,true,true,true,true,false,true,true,true,true,true,false,true,true,true,true,true,true,true,false,true,true,true,true,true,true,true,true,true,false,true,true,true,true,true,false,true,false,true,false,true,false,true,true,false,false,false,false,false,false,false,false,false,false,false,false,false,false,false,false,false,false,false,false,false,false,false,false,false,false,false,false,false,false,false,false,false,false,false,false,false,false],"id":20,"left_children":[1,3,5,7,9,11,13,15,17,19,21,23,25,27,-1,29,31,33,35,37,-1,39,41,43,45,47,49,51,-1,53,55,57,59,61,63,65,67,69,-1,71,73,75,77,79,-1,81,-1,83,-1,85,-1,87,89,-1,-1,-1,-1,-1,-1,-1,-1,-1,-1,-1,-1,-1,-1,-1,-1,-1,-1,-1,-1,-1,-1,-1,-1,-1,-1,-1,-1,-1,-1,-1,-1,-1,-1,-1,-1,-1,-1],"loss_changes":[1.261532E2,8.3579956E1,4.4925713E1,3.392224E1,9.554321E0,2.4619196E1,1.3100567E0,6.0503235E0,1.3816071E1,7.8912354E-1,3.582924E0,1.8164253E1,1.3750477E0,1.540937E0,0E0,5.3629456E0,1.2747083E1,1.037616E1,3.0985496E0,5.5511475E-1,0E0,4.7315826E0,1.2240658E0,1.1225819E1,6.128993E-1,4.6979618E-1,9.978053E-1,4.9007082E-1,0E0,3.9443665E0,9.10936E0,7.294291E0,4.1620884E0,3.8910217E0,2.4506989E0,3.645134E-2,4.6233857E-1,4.724121E-2,0E0,7.768631E-1,8.5520935E-1,1.9086065E0,2.242164E0,8.03075E0,0E0,2.6449013E-1,0E0,1.1004925E-1,0E0,4.1052902E-1,0E0,1.5238442E0,1.8130064E-1,0E0,0E0,0E0,0E0,0E0,0E0,0E0,0E0,0E0,0E0,0E0,0E0,0E0,0E0,0E0,0E0,0E0,0E0,0E0,0E0,0E0,0E0,0E0,0E0,0E0,0E0,0E0,0E0,0E0,0E0,0E0,0E0,0E0,0E0,0E0,0E0,0E0,0E0],"parents":[2147483647,0,0,1,1,2,2,3,3,4,4,5,5,6,6,7,7,8,8,9,9,10,10,11,11,12,12,13,13,15,15,16,16,17,17,18,18,19,19,21,21,22,22,23,23,24,24,25,25,26,26,27,27,29,29,30,30,31,31,32,32,33,33,34,34,35,35,36,36,37,37,39,39,40,40,41,41,42,42,43,43,45,45,47,47,49,49,51,51,52,52],"right_children":[2,4,6,8,10,12,14,16,18,20,22,24,26,28,-1,30,32,34,36,38,-1,40,42,44,46,48,50,52,-1,54,56,58,60,62,64,66,68,70,-1,72,74,76,78,80,-1,82,-1,84,-1,86,-1,88,90,-1,-1,-1,-1,-1,-1,-1,-1,-1,-1,-1,-1,-1,-1,-1,-1,-1,-1,-1,-1,-1,-1,-1,-1,-1,-1,-1,-1,-1,-1,-1,-1,-1,-1,-1,-1,-1,-1],"split_conditions":[5E-1,5E-1,1.5E0,5E-1,5E-1,5E-1,5E-1,5E-1,5E-1,3.5E0,1.5E0,1.5E0,5E-1,5E-1,2.0433314E-1,5E-1,5E-1,5E-1,5E-1,2.5E0,-2.454726E-2,5E-1,5E-1,5E-1,1.5E0,1.5E0,1.5E0,5E-1,-1.3498577E-1,5E-1,5E-1,5E-1,5E-1,5E-1,1.5E0,5E-1,5E-1,2.5E0,-7.3578865E-3,5E-1,1.5E0,5E-1,5E-1,5E-1,2.0843841E-1,1.5E0,-3.928943E-2,5E-1,3.693208E-2,1.5E0,1.6598962E-1,5E-1,5E-1,8.305627E-2,1.11668415E-1,1.3215548E-1,-3.8077507E-2,3.0913614E-2,-1.3261999E-1,1.5963145E-1,1.8198559E-2,1.6175517E-1,2.0306052E-1,1.2961487E-1,6.3408196E-2,-2.1535884E-1,-7.741172E-2,7.415151E-2,-7.348416E-2,2.071792E-1,6.198976E-2,2.0340723E-1,1.3899566E-1,1.16536915E-1,-2.9582644E-3,8.444461E-2,2.314839E-1,1.2991865E-1,-1.2355423E-1,1.1751654E-1,-1.6386873E-1,1.6271642E-1,8.308334E-3,7.143927E-2,2.346028E-1,-1.5710841E-1,3.0682128E-2,1.1969491E-1,-1.2646383E-1,1.1181583E-1,2.0165864E-1],"split_indices":[18,7,7,11,4,22,2,17,17,14,4,4,10,8,0,10,8,2,8,11,0,8,20,20,2,6,1,6,0,5,20,2,2,10,2,25,5,14,0,11,8,10,10,7,0,6,0,7,0,10,0,10,10,0,0,0,0,0,0,0,0,0,0,0,0,0,0,0,0,0,0,0,0,0,0,0,0,0,0,0,0,0,0,0,0,0,0,0,0,0,0],"split_type":[0,0,0,0,0,0,0,0,0,0,0,0,0,0,0,0,0,0,0,0,0,0,0,0,0,0,0,0,0,0,0,0,0,0,0,0,0,0,0,0,0,0,0,0,0,0,0,0,0,0,0,0,0,0,0,0,0,0,0,0,0,0,0,0,0,0,0,0,0,0,0,0,0,0,0,0,0,0,0,0,0,0,0,0,0,0,0,0,0,0,0],"sum_hessian":[6.37005E3,6.0013E3,3.6875015E2,4.213265E3,1.7880344E3,2.9456625E2,7.418392E1,2.8357583E3,1.377507E3,1.4263292E3,3.617052E2,2.6890582E2,2.5660429E1,3.259571E1,4.158821E1,2.5750676E3,2.6069067E2,1.3592369E3,1.8270065E1,1.4252037E3,1.1255322E0,2.8357507E2,7.813012E1,2.476754E2,2.1230415E1,2.1416506E1,4.2439237E0,3.1289886E1,1.3058254E0,1.8363849E3,7.386827E2,1.4695438E2,1.13736305E2,9.4932904E2,4.099079E2,1.01670265E1,8.103039E0,1.424184E3,1.019715E0,1.9081914E2,9.275594E1,6.754257E1,1.0587544E1,2.4052681E2,7.1485815E0,2.0039085E1,1.191329E0,1.9706804E1,1.7097007E0,2.7575903E0,1.4863334E0,1.2716833E1,1.8573053E1,1.0841796E3,7.522054E2,7.0963055E2,2.9052097E1,1.169548E2,2.9999573E1,8.979317E1,2.3943138E1,5.9054944E2,3.587796E2,3.475953E2,6.231259E1,8.434512E0,1.7325139E0,6.4186E0,1.6844387E0,1.4229458E3,1.2382214E0,1.6100769E2,2.981144E1,8.706622E1,5.689717E0,5.867796E1,8.864615E0,5.020183E0,5.567362E0,8.82095E0,2.3170587E2,1.887116E1,1.167926E0,1.4932051E0,1.82136E1,1.3687563E0,1.3888341E0,1.0778802E1,1.9380317E0,9.793776E0,8.779277E0],"tree_param":{"num_deleted":"0","num_feature":"50","num_nodes":"91","size_leaf_vector":"0"}},{"base_weights":[-5.352713E-2,-5.437754E-1,7.36482E-1,5.456862E-1,8.2559365E-1,5.867474E-1,-4.5004275E-1,8.303807E-1,3.1100392E-1,6.420816E-1,3.7399745E-1,-5.4668057E-1,5.8403426E-1,8.3321977E-1,3.5540107E-1,-1.0375836E-1,8.141325E-1,6.4953667E-1,-2.2843619E-1,5.8863837E-2,7.98822E-1,7.8400594E-1,8.621925E-1,5.4715985E-1,-3.7477103E-1,1.6005555E-1,-3.320543E-1,6.586009E-1,-1.0231516E-1,-1.6435713E-1,3.3677557E-1,8.9837277E-1,1.5710007E-1,7.5512815E-1,8.7918544E-1,8.637811E-1,1.2181543E-1,1.9383368E-1,7.9211956E-1,2.9203114E-1,-4.486463E-2,-5.2838516E-1,8.776859E-2],"categories":[],"categories_nodes":[],"categories_segments":[],"categories_sizes":[],"default_left":[true,false,true,true,true,true,true,true,true,true,true,false,false,true,true,true,false,true,false,true,true,true,true,true,false,true,true,false,false,false,false,false,false,false,false,false,false,false,false,false,false,false,false],"id":21,"left_children":[1,-1,3,5,7,9,11,13,15,17,19,-1,-1,21,23,25,-1,27,-1,29,31,33,35,37,-1,39,41,-1,-1,-1,-1,-1,-1,-1,-1,-1,-1,-1,-1,-1,-1,-1,-1],"loss_changes":[1.4767891E3,0E0,2.4375183E1,1.9390625E1,2.1887207E0,5.0540314E0,2.2272549E0,1.0302734E0,2.3286753E0,2.455429E0,1.2700473E1,0E0,0E0,7.1710205E-1,1.2675121E0,4.6159866E-1,0E0,2.471283E0,0E0,3.5136113E0,2.4443798E0,3.6151123E-1,6.062622E-1,4.017911E-1,0E0,1.1643651E-1,3.728479E-1,0E0,0E0,0E0,0E0,0E0,0E0,0E0,0E0,0E0,0E0,0E0,0E0,0E0,0E0,0E0,0E0],"parents":[2147483647,0,0,2,2,3,3,4,4,5,5,6,6,7,7,8,8,9,9,10,10,13,13,14,14,15,15,17,17,19,19,20,20,21,21,22,22,23,23,25,25,26,26],"right_children":[2,-1,4,6,8,10,12,14,16,18,20,-1,-1,22,24,26,-1,28,-1,30,32,34,36,38,-1,40,42,-1,-1,-1,-1,-1,-1,-1,-1,-1,-1,-1,-1,-1,-1,-1,-1],"split_conditions":[5E-1,-1.6313262E-1,5E-1,5E-1,1.5E0,5E-1,1.5E0,5E-1,1.5E0,5E-1,1.5E0,-1.6400418E-1,1.7521028E-1,5E-1,5E-1,5E-1,2.4423976E-1,5E-1,-6.853086E-2,5E-1,5E-1,5E-1,1.5E0,5E-1,-1.1243131E-1,5E-1,5E-1,1.975803E-1,-3.0694548E-2,-4.930714E-2,1.01032674E-1,2.6951185E-1,4.7130022E-2,2.2653845E-1,2.6375565E-1,2.5913435E-1,3.654463E-2,5.8150105E-2,2.3763588E-1,8.760934E-2,-1.3459389E-2,-1.5851556E-1,2.633058E-2],"split_indices":[12,0,8,13,1,4,14,21,3,21,4,0,0,4,6,5,0,18,0,3,3,15,14,16,0,4,19,0,0,0,0,0,0,0,0,0,0,0,0,0,0,0,0],"split_type":[0,0,0,0,0,0,0,0,0,0,0,0,0,0,0,0,0,0,0,0,0,0,0,0,0,0,0,0,0,0,0,0,0,0,0,0,0,0,0,0,0,0,0],"sum_hessian":[3.8109968E3,2.3518462E3,1.4591505E3,4.6680457E2,9.923459E2,4.4871164E2,1.8092934E1,9.8259155E2,9.75434E0,3.5449332E2,9.421832E1,1.6977654E1,1.1152812E0,9.7600354E2,6.588029E0,5.7817955E0,3.9725444E0,3.5173495E2,2.7583692E0,5.474626E1,3.9472057E1,3.720647E2,6.0393884E2,5.416249E0,1.1717801E0,2.8209167E0,2.960879E0,3.476675E2,4.06744E0,3.0587076E1,2.4159187E1,3.3824844E1,5.647213E0,2.923104E2,7.9754295E1,6.0247943E2,1.4593754E0,2.9510243E0,2.4652247E0,1.4572808E0,1.3636358E0,1.8412328E0,1.1196463E0],"tree_param":{"num_deleted":"0","num_feature":"50","num_nodes":"43","size_leaf_vector":"0"}},{"base_weights":[-7.1885966E-2,-4.7295633E-1,6.4591235E-1,-4.8975018E-1,-1.8157418E-1,6.5911716E-1,3.6148104E-1,-4.7242257E-1,-5.452877E-1,8.867951E-3,-5.470681E-1,6.702827E-1,3.817345E-1,5.3527695E-1,-3.757156E-2,-4.4712636E-1,-5.0849634E-1,1.8919088E-1,-3.8633862E-1,6.744989E-1,4.8158577E-1,4.549161E-1,-7.2688156E-1,6.5384734E-1,-4.9510124E-1,-1.9307387E-1,9.675997E-1,-4.5844072E-1,-3.158022E-1,-5.339521E-1,-3.9024276E-1,3.8126358E-1,-3.981967E-1,-4.1742098E-1,1.4672309E-1,6.7656255E-1,3.3075473E-1,5.0668347E-1,-2.3331309E-2,3.3807987E-1,8.475441E-1,7.199582E-1,4.7662694E-2,-6.094346E-1,-2.0792313E-1,-3.4421575E-1,3.3273944E-1,-4.593977E-1,1.0560086E-1,-3.3574393E-1,4.1241017E-1,-5.372611E-1,-3.9550358E-1,-3.3952072E-1,-5.106784E-1,2.783818E-2,1.2719775E0,2.8732005E-1,-5.257355E-1,-4.6234134E-1,-2.9802266E-1,6.973253E-1,6.3629323E-1,9.283712E-3,4.3936753E-1,5.406196E-1,3.479119E-2,4.542545E-1,8.519391E-2,-3.7139064E-1,5.8261555E-1,-4.86601E-1,-4.1597713E-2,7.0645463E-1,-3.7072954E-1],"categories":[],"categories_nodes":[],"categories_segments":[],"categories_sizes":[],"default_left":[true,true,true,true,true,true,true,true,false,true,false,true,true,true,true,true,true,true,true,true,true,true,false,true,true,true,false,true,true,true,true,true,true,true,false,true,true,true,false,true,false,false,true,false,false,true,true,false,false,false,false,false,false,false,false,false,false,false,false,false,false,false,false,false,false,false,false,false,false,false,false,false,false,false,false],"id":22,"left_children":[1,3,5,7,9,11,13,15,-1,17,-1,19,21,23,25,27,29,31,33,35,37,39,-1,41,43,45,-1,47,49,51,53,55,57,59,-1,61,63,65,-1,67,-1,-1,69,-1,-1,71,73,-1,-1,-1,-1,-1,-1,-1,-1,-1,-1,-1,-1,-1,-1,-1,-1,-1,-1,-1,-1,-1,-1,-1,-1,-1,-1,-1,-1],"loss_changes":[1.0397871E3,1.12491455E1,4.6245117E0,1.8500366E0,8.904068E0,3.5724487E0,4.157452E0,1.3027649E0,0E0,6.133388E0,0E0,6.1938477E-1,4.3996243E0,5.408822E0,3.161842E0,1.3320312E0,1.8502655E0,6.8157372E0,5.081539E-1,5.9802246E-1,3.8485146E-1,1.8999014E0,0E0,1.4788456E0,3.300464E-2,1.4907525E0,0E0,5.4125977E-1,1.3300371E0,4.4067383E-2,5.893116E-1,1.4137602E1,1.4663594E0,3.0326843E-4,0E0,5.1831055E-1,3.0562335E-1,4.3098068E-1,0E0,1.0893259E0,0E0,0E0,1.2887927E0,0E0,0E0,5.8050287E-1,1.41202E0,0E0,0E0,0E0,0E0,0E0,0E0,0E0,0E0,0E0,0E0,0E0,0E0,0E0,0E0,0E0,0E0,0E0,0E0,0E0,0E0,0E0,0E0,0E0,0E0,0E0,0E0,0E0,0E0],"parents":[2147483647,0,0,1,1,2,2,3,3,4,4,5,5,6,6,7,7,9,9,11,11,12,12,13,13,14,14,15,15,16,16,17,17,18,18,19,19,20,20,21,21,23,23,24,24,25,25,27,27,28,28,29,29,30,30,31,31,32,32,33,33,35,35,36,36,37,37,39,39,42,42,45,45,46,46],"right_children":[2,4,6,8,10,12,14,16,-1,18,-1,20,22,24,26,28,30,32,34,36,38,40,-1,42,44,46,-1,48,50,52,54,56,58,60,-1,62,64,66,-1,68,-1,-1,70,-1,-1,72,74,-1,-1,-1,-1,-1,-1,-1,-1,-1,-1,-1,-1,-1,-1,-1,-1,-1,-1,-1,-1,-1,-1,-1,-1,-1,-1,-1,-1],"split_conditions":[5E-1,1.5E0,5E-1,5E-1,5E-1,5E-1,5E-1,5E-1,-1.6358632E-1,5E-1,-1.6412044E-1,1.5E0,5E-1,1.5E0,1.5E0,1.5E0,5E-1,5E-1,5E-1,1.5E0,1.5E0,5E-1,-2.1806447E-1,5E-1,5E-1,1.5E0,2.9027992E-1,5E-1,5E-1,5E-1,5E-1,5E-1,5E-1,5E-1,4.4016927E-2,5E-1,5E-1,2.5E0,-6.999393E-3,5E-1,2.5426322E-1,2.1598746E-1,5E-1,-1.828304E-1,-6.2376942E-2,5E-1,5E-1,-1.3781932E-1,3.168026E-2,-1.00723185E-1,1.2372305E-1,-1.6117835E-1,-1.1865108E-1,-1.01856224E-1,-1.5320353E-1,8.3514545E-3,3.815933E-1,8.619602E-2,-1.5772066E-1,-1.3870241E-1,-8.94068E-2,2.091976E-1,1.9088797E-1,2.7851136E-3,1.3181026E-1,1.6218589E-1,1.0437357E-2,1.3627636E-1,2.5558174E-2,-1.114172E-1,1.7478468E-1,-1.459803E-1,-1.2479315E-2,2.119364E-1,-1.1121886E-1],"split_indices":[13,4,23,12,12,21,7,7,0,9,0,9,19,4,16,2,4,16,17,7,6,14,0,2,9,13,0,31,17,17,5,7,7,2,0,4,16,9,0,2,0,0,5,0,0,4,21,0,0,0,0,0,0,0,0,0,0,0,0,0,0,0,0,0,0,0,0,0,0,0,0,0,0,0,0],"split_type":[0,0,0,0,0,0,0,0,0,0,0,0,0,0,0,0,0,0,0,0,0,0,0,0,0,0,0,0,0,0,0,0,0,0,0,0,0,0,0,0,0,0,0,0,0,0,0,0,0,0,0,0,0,0,0,0,0,0,0,0,0,0,0,0,0,0,0,0,0,0,0,0,0,0,0],"sum_hessian":[3.60972E3,2.3159963E3,1.2937236E3,2.189144E3,1.2685232E2,1.235068E3,5.8655647E1,1.675803E3,5.1334094E2,8.403912E1,4.2813198E1,1.1859147E3,4.9153328E1,4.0622368E1,1.8033278E1,9.929241E2,6.828789E2,5.806623E1,2.597289E1,1.1574779E3,2.8436758E1,4.66627E1,2.490629E0,3.6757896E1,3.8644714E0,1.631693E1,1.7163473E0,9.118701E2,8.105395E1,5.590254E2,1.23853546E2,4.4022137E1,1.4044096E1,2.474686E1,1.2260308E0,1.1496079E3,7.869958E0,2.7086864E1,1.349893E0,3.739574E1,9.266961E0,3.297404E1,3.7838547E0,1.9614261E0,1.9030453E0,1.2942152E1,3.3747785E0,9.105108E2,1.3593055E0,7.9418076E1,1.635878E0,5.4316284E2,1.58625E1,8.983728E1,3.401627E1,3.2254974E1,1.1767162E1,2.0064874E0,1.2037608E1,1.5894666E1,8.852194E0,7.477534E2,4.018545E2,2.2615933E0,5.608364E0,2.5133728E1,1.953137E0,2.5078508E1,1.2317231E1,2.29322E0,1.4906347E0,8.387681E0,4.554471E0,2.201171E0,1.1736077E0],"tree_param":{"num_deleted":"0","num_feature":"50","num_nodes":"75","size_leaf_vector":"0"}},{"base_weights":[-3.9868367E-1,-5.447311E-1,6.8501014E-1,7.2825366E-1,-5.237511E-1,7.580492E-1,-2.9439232E-1,7.9145676E-1,2.3676917E-2,-6.4275265E-2,-4.9583286E-1,8.1057066E-1,-1.18484996E-1,1.2571599E-1,-4.1519874E-1,1.253416E-1,-3.5763922E-1,8.314457E-1,-1.9495048E-1,3.1723056E-2,-3.6973137E-1,2.7204633E-1,-2.1774413E-1],"categories":[],"categories_nodes":[],"categories_segments":[],"categories_sizes":[],"default_left":[true,false,true,true,false,true,true,true,true,true,false,true,true,true,false,false,false,false,false,false,false,false,false],"id":23,"left_children":[1,-1,3,5,-1,7,9,11,13,15,-1,17,19,21,-1,-1,-1,-1,-1,-1,-1,-1,-1],"loss_changes":[4.3226523E2,0E0,1.7344711E1,9.78273E0,0E0,7.4672546E0,4.13247E-1,5.1716003E0,6.929314E-1,3.580662E-1,0E0,6.1642303E0,2.7123582E-1,6.812506E-1,0E0,0E0,0E0,0E0,0E0,0E0,0E0,0E0,0E0],"parents":[2147483647,0,0,2,2,3,3,5,5,6,6,7,7,8,8,9,9,11,11,12,12,13,13],"right_children":[2,-1,4,6,-1,8,10,12,14,16,-1,18,20,22,-1,-1,-1,-1,-1,-1,-1,-1,-1],"split_conditions":[5E-1,-1.6341934E-1,1.5E0,5E-1,-1.5712532E-1,1.5E0,5E-1,2.5E0,2.5E0,1.5E0,-1.4874986E-1,5E-1,5E-1,1.5E0,-1.24559626E-1,3.760248E-2,-1.0729177E-1,2.4943371E-1,-5.8485147E-2,9.516917E-3,-1.10919416E-1,8.16139E-2,-6.532324E-2],"split_indices":[18,0,1,14,0,6,6,3,6,3,0,12,6,3,0,0,0,0,0,0,0,0,0],"split_type":[0,0,0,0,0,0,0,0,0,0,0,0,0,0,0,0,0,0,0,0,0,0,0],"sum_hessian":[2.7278198E3,2.404295E3,3.2352496E2,3.127344E2,1.0790581E1,3.0413202E2,8.6023655E0,2.908243E2,1.3307706E1,4.631088E0,3.9712784E0,2.84948E2,5.8763146E0,1.1376262E1,1.9314433E0,3.1608222E0,1.4702654E0,2.793223E2,5.625727E0,4.224455E0,1.6518598E0,8.1232815E0,3.2529802E0],"tree_param":{"num_deleted":"0","num_feature":"50","num_nodes":"23","size_leaf_vector":"0"}},{"base_weights":[-4.956151E-1,-5.356895E-1,-2.6113424E-2,-5.4139894E-1,-5.0624776E-1,-3.3173952E-1,3.6527693E-1,-5.407926E-1,6.9651425E-1,-3.5378766E-1,5.9092456E-1,5.4619944E-1,-4.0922105E-1,1.1408365E0,-4.1605577E-1,-2.7738538E-1,-4.8470247E-1,4.159454E-1,1.3109317E0,-5.106566E-1,-8.982058E-2,1.5202461E0,-5.0433785E-2,-3.6712438E-1,1.4550958E-3,-5.0741464E-1,2.3057755E-2,3.4140515E-1,1.3412136E0,1.4849745E0,3.1245834E-1,2.2556941E-1,-3.8150194E-1,-3.8114214E-1,1.3046631E-1,1.8122149E-1,-3.3023018E-1,2.8005525E-1,1.009185E0],"categories":[],"categories_nodes":[],"categories_segments":[],"categories_sizes":[],"default_left":[true,true,true,false,true,true,true,false,true,true,false,true,true,true,false,true,true,true,true,false,true,false,false,true,true,false,false,true,false,false,false,false,false,false,false,false,false,false,false],"id":24,"left_children":[1,3,5,-1,7,9,11,-1,13,15,-1,17,19,21,-1,23,25,27,29,-1,31,-1,-1,33,35,-1,-1,37,-1,-1,-1,-1,-1,-1,-1,-1,-1,-1,-1],"loss_changes":[4.7542114E1,1.17370605E-1,2.4024109E1,0E0,1.6732445E1,2.5023394E0,1.2567733E1,0E0,6.1237097E0,9.7304344E-1,0E0,6.6107845E0,5.131278E-1,3.8884058E0,0E0,1.8086286E0,4.6685028E-1,3.876875E0,1.2721863E0,0E0,5.8025783E-1,0E0,0E0,4.3104696E-1,1.168219E0,0E0,0E0,2.155229E0,0E0,0E0,0E0,0E0,0E0,0E0,0E0,0E0,0E0,0E0,0E0],"parents":[2147483647,0,0,1,1,2,2,4,4,5,5,6,6,8,8,9,9,11,11,12,12,13,13,15,15,16,16,17,17,18,18,20,20,23,23,24,24,27,27],"right_children":[2,4,6,-1,8,10,12,-1,14,16,-1,18,20,22,-1,24,26,28,30,-1,32,-1,-1,34,36,-1,-1,38,-1,-1,-1,-1,-1,-1,-1,-1,-1,-1,-1],"split_conditions":[5E-1,5E-1,5E-1,-1.6241969E-1,5E-1,1.5E0,5E-1,-1.6223778E-1,5E-1,5E-1,1.7727737E-1,1.5E0,5E-1,5E-1,-1.2481674E-1,5E-1,5E-1,5E-1,5E-1,-1.5319699E-1,5E-1,4.5607385E-1,-1.5130136E-2,5E-1,5E-1,-1.5222439E-1,6.9173267E-3,5E-1,4.023641E-1,4.4549236E-1,9.3737505E-2,6.767083E-2,-1.1445059E-1,-1.14342645E-1,3.9139897E-2,5.4366447E-2,-9.906906E-2,8.401658E-2,3.027555E-1],"split_indices":[17,13,10,0,10,17,7,0,7,13,0,3,16,9,0,3,15,11,9,0,9,0,0,25,7,0,0,15,0,0,0,0,0,0,0,0,0,0,0],"split_type":[0,0,0,0,0,0,0,0,0,0,0,0,0,0,0,0,0,0,0,0,0,0,0,0,0,0,0,0,0,0,0,0,0,0,0,0,0,0,0],"sum_hessian":[2.526564E3,2.3277385E3,1.9882536E2,1.9350903E3,3.9264825E2,1.1173048E2,8.709488E1,3.8222076E2,1.04274845E1,1.0972503E2,2.0054483E0,7.084117E1,1.6253708E1,7.433424E0,2.9940605E0,7.1257675E1,3.8467354E1,6.185034E1,8.990832E0,1.1881555E1,4.3721538E0,5.428376E0,2.0050483E0,5.3668858E1,1.7588814E1,3.682103E1,1.6463271E0,5.8506035E1,3.3443081E0,7.2413545E0,1.7494779E0,2.2096047E0,2.162549E0,5.242598E1,1.2428807E0,1.1700841E1,5.8879733E0,5.4883217E1,3.6228182E0],"tree_param":{"num_deleted":"0","num_feature":"50","num_nodes":"39","size_leaf_vector":"0"}},{"base_weights":[3.6132115E-1,3.1750903E-1,4.500002E-1,2.6022175E-1,4.40745E-1,3.8259917E-1,5.932883E-1,2.7534112E-1,1.10190146E-1,4.5330992E-1,-4.7278258E-1,2.3535326E-1,5.342817E-1,5.973857E-1,-3.558158E-1,2.5453416E-1,3.2760412E-1,2.1982728E-1,-3.339746E-1,5.141556E-1,3.2012352E-1,-3.424136E-1,-6.145576E-1,1.7890921E-1,6.221438E-1,5.729524E-1,2.884369E-1,6.208663E-1,4.5097524E-1,-4.322235E-1,-9.616958E-2,2.2099157E-1,3.0395004E-1,3.4071255E-1,-1.4353596E-1,7.236156E-2,4.642161E-1,-5.0819117E-1,-1.1872721E-1,4.656305E-1,5.956651E-1,3.572323E-1,1.349924E-1,-4.735378E-1,-7.6700106E-2,-6.8119216E-1,-2.0431629E-1,1.18886225E-1,5.302063E-1,6.4623624E-1,2.4822898E-1,5.1269406E-1,6.0579723E-1,3.1188974E-1,-1.11610174E-1,6.2492317E-1,2.0904946E-1,5.5213904E-1,3.0886382E-1,2.181963E-1,6.668743E-1,3.4805447E-1,1.7445444E-1,3.3111113E-1,7.880956E-1,-1.9533642E-1,2.8478426E-1,-2.1311925E-1,1.8588082E-1,-5.5549634E-1,-9.841064E-2,-1.7703117E-1,4.6329615E-1,3.009071E-3,5.6331795E-1,6.249307E-1,3.721939E-1,2.4385963E-1,4.1445112E-1,1.5539344E-1,-2.5950179E-1,-6.6103363E-1,-2.5078642E-1,1.4871928E-1,-3.7928957E-1,4.4708464E-2,4.7136837E-1,5.399512E-1,-9.04709E-2,6.681386E-1,8.5157484E-2,4.805887E-1,-3.7666598E-1,5.230337E-1,-1.8425696E-1,6.065657E-1,1.7082238E-1,3.363855E-1,-4.6411693E-1,-3.4556854E-1,2.0139784E-2,-9.532092E-3,4.817757E-1,3.495309E-1,-1.9350813E-1],"categories":[],"categories_nodes":[],"categories_segments":[],"categories_sizes":[],"default_left":[true,true,true,true,true,true,true,true,true,true,true,true,true,true,true,true,true,true,true,true,true,true,true,true,true,true,true,true,true,false,false,true,true,true,true,true,false,true,true,true,true,true,true,true,true,false,false,true,true,true,true,true,true,true,true,false,true,false,true,false,false,false,false,false,false,false,false,false,false,false,false,false,false,false,false,false,false,false,false,false,false,false,false,false,false,false,false,false,false,false,false,false,false,false,false,false,false,false,false,false,false,false,false,false,false],"id":25,"left_children":[1,3,5,7,9,11,13,15,17,19,21,23,25,27,29,31,33,35,37,39,41,43,45,47,49,51,53,55,57,-1,-1,59,61,63,65,67,-1,69,71,73,75,77,79,81,83,-1,-1,85,87,89,91,93,95,97,99,-1,101,-1,103,-1,-1,-1,-1,-1,-1,-1,-1,-1,-1,-1,-1,-1,-1,-1,-1,-1,-1,-1,-1,-1,-1,-1,-1,-1,-1,-1,-1,-1,-1,-1,-1,-1,-1,-1,-1,-1,-1,-1,-1,-1,-1,-1,-1,-1,-1],"loss_changes":[2.23609E1,2.7279022E1,1.8247864E1,5.983841E0,1.433168E1,2.8994186E1,2.5853424E0,2.5350647E0,1.1974507E1,9.671249E0,1.0704064E-1,1.4371258E1,5.932892E0,1.809845E0,2.2899508E-2,2.7949524E0,4.261978E0,7.052084E0,1.768877E0,3.011322E0,2.584755E0,3.5412645E-1,5.1356792E-2,1.21729145E1,5.9695816E-1,7.843628E-1,8.7167406E-1,7.4017334E-1,1.0898933E0,